digraph Tree {
node [shape=box] ;
0 [label="X[7] <= 52385.777\ngini = 0.247\nsamples = 130324\nvalue = [112610, 5715, 5857, 6142]"] ;
1 [label="X[5] <= 42.5\ngini = 0.206\nsamples = 92942\nvalue = [82582, 3094, 3512, 3754]"] ;
0 -> 1 [labeldistance=2.5, labelangle=45, headlabel="True"] ;
2 [label="X[6] <= -2.9\ngini = 0.196\nsamples = 89742\nvalue = [80270, 2788, 3220, 3464]"] ;
1 -> 2 ;
3 [label="X[7] <= 31693.074\ngini = 0.309\nsamples = 9812\nvalue = [8093, 573, 578, 568]"] ;
2 -> 3 ;
4 [label="X[2] <= 194.5\ngini = 0.379\nsamples = 4399\nvalue = [3419, 300, 328, 352]"] ;
3 -> 4 ;
5 [label="X[4] <= 0.5\ngini = 0.363\nsamples = 4126\nvalue = [3253, 273, 306, 294]"] ;
4 -> 5 ;
6 [label="X[5] <= 28.5\ngini = 0.402\nsamples = 2785\nvalue = [2119, 209, 233, 224]"] ;
5 -> 6 ;
7 [label="X[5] <= 25.5\ngini = 0.414\nsamples = 2634\nvalue = [1980, 207, 228, 219]"] ;
6 -> 7 ;
8 [label="X[3] <= 143.5\ngini = 0.397\nsamples = 2588\nvalue = [1978, 173, 225, 212]"] ;
7 -> 8 ;
9 [label="X[0] <= 0.5\ngini = 0.395\nsamples = 2584\nvalue = [1978, 172, 225, 209]"] ;
8 -> 9 ;
10 [label="X[2] <= 186.5\ngini = 0.407\nsamples = 1212\nvalue = [916, 70, 146, 80]"] ;
9 -> 10 ;
11 [label="X[5] <= 6.0\ngini = 0.396\nsamples = 1145\nvalue = [874, 69, 134, 68]"] ;
10 -> 11 ;
12 [label="X[5] <= 4.5\ngini = 0.456\nsamples = 410\nvalue = [294, 38, 55, 23]"] ;
11 -> 12 ;
13 [label="X[1] <= 33.5\ngini = 0.405\nsamples = 371\nvalue = [281, 24, 43, 23]"] ;
12 -> 13 ;
14 [label="X[5] <= 2.5\ngini = 0.432\nsamples = 335\nvalue = [247, 24, 41, 23]"] ;
13 -> 14 ;
15 [label="X[2] <= 177.0\ngini = 0.252\nsamples = 27\nvalue = [23, 0, 0, 4]"] ;
14 -> 15 ;
16 [label="gini = 0.0\nsamples = 10\nvalue = [10, 0, 0, 0]"] ;
15 -> 16 ;
17 [label="X[1] <= 23.5\ngini = 0.36\nsamples = 17\nvalue = [13, 0, 0, 4]"] ;
15 -> 17 ;
18 [label="gini = 0.0\nsamples = 4\nvalue = [4, 0, 0, 0]"] ;
17 -> 18 ;
19 [label="X[1] <= 29.5\ngini = 0.426\nsamples = 13\nvalue = [9, 0, 0, 4]"] ;
17 -> 19 ;
20 [label="X[2] <= 179.0\ngini = 0.494\nsamples = 9\nvalue = [5, 0, 0, 4]"] ;
19 -> 20 ;
21 [label="gini = 0.0\nsamples = 1\nvalue = [0, 0, 0, 1]"] ;
20 -> 21 ;
22 [label="X[2] <= 183.5\ngini = 0.469\nsamples = 8\nvalue = [5, 0, 0, 3]"] ;
20 -> 22 ;
23 [label="X[1] <= 25.5\ngini = 0.408\nsamples = 7\nvalue = [5, 0, 0, 2]"] ;
22 -> 23 ;
24 [label="X[3] <= 77.0\ngini = 0.5\nsamples = 2\nvalue = [1, 0, 0, 1]"] ;
23 -> 24 ;
25 [label="gini = 0.0\nsamples = 1\nvalue = [0, 0, 0, 1]"] ;
24 -> 25 ;
26 [label="gini = 0.0\nsamples = 1\nvalue = [1, 0, 0, 0]"] ;
24 -> 26 ;
27 [label="X[3] <= 78.5\ngini = 0.32\nsamples = 5\nvalue = [4, 0, 0, 1]"] ;
23 -> 27 ;
28 [label="gini = 0.0\nsamples = 2\nvalue = [2, 0, 0, 0]"] ;
27 -> 28 ;
29 [label="X[2] <= 181.5\ngini = 0.444\nsamples = 3\nvalue = [2, 0, 0, 1]"] ;
27 -> 29 ;
30 [label="gini = 0.5\nsamples = 2\nvalue = [1, 0, 0, 1]"] ;
29 -> 30 ;
31 [label="gini = 0.0\nsamples = 1\nvalue = [1, 0, 0, 0]"] ;
29 -> 31 ;
32 [label="gini = 0.0\nsamples = 1\nvalue = [0, 0, 0, 1]"] ;
22 -> 32 ;
33 [label="gini = 0.0\nsamples = 4\nvalue = [4, 0, 0, 0]"] ;
19 -> 33 ;
34 [label="X[3] <= 56.5\ngini = 0.443\nsamples = 308\nvalue = [224, 24, 41, 19]"] ;
14 -> 34 ;
35 [label="X[1] <= 27.5\ngini = 0.331\nsamples = 84\nvalue = [68, 6, 7, 3]"] ;
34 -> 35 ;
36 [label="X[3] <= 44.0\ngini = 0.25\nsamples = 50\nvalue = [43, 3, 4, 0]"] ;
35 -> 36 ;
37 [label="X[1] <= 24.5\ngini = 0.56\nsamples = 5\nvalue = [3, 1, 1, 0]"] ;
36 -> 37 ;
38 [label="gini = 0.0\nsamples = 1\nvalue = [0, 1, 0, 0]"] ;
37 -> 38 ;
39 [label="X[2] <= 156.5\ngini = 0.375\nsamples = 4\nvalue = [3, 0, 1, 0]"] ;
37 -> 39 ;
40 [label="gini = 0.0\nsamples = 2\nvalue = [2, 0, 0, 0]"] ;
39 -> 40 ;
41 [label="gini = 0.5\nsamples = 2\nvalue = [1, 0, 1, 0]"] ;
39 -> 41 ;
42 [label="X[3] <= 54.5\ngini = 0.203\nsamples = 45\nvalue = [40, 2, 3, 0]"] ;
36 -> 42 ;
43 [label="X[2] <= 168.5\ngini = 0.123\nsamples = 31\nvalue = [29, 1, 1, 0]"] ;
42 -> 43 ;
44 [label="X[3] <= 51.0\ngini = 0.077\nsamples = 25\nvalue = [24, 0, 1, 0]"] ;
43 -> 44 ;
45 [label="gini = 0.0\nsamples = 17\nvalue = [17, 0, 0, 0]"] ;
44 -> 45 ;
46 [label="X[1] <= 24.5\ngini = 0.219\nsamples = 8\nvalue = [7, 0, 1, 0]"] ;
44 -> 46 ;
47 [label="X[1] <= 23.0\ngini = 0.375\nsamples = 4\nvalue = [3, 0, 1, 0]"] ;
46 -> 47 ;
48 [label="gini = 0.0\nsamples = 3\nvalue = [3, 0, 0, 0]"] ;
47 -> 48 ;
49 [label="gini = 0.0\nsamples = 1\nvalue = [0, 0, 1, 0]"] ;
47 -> 49 ;
50 [label="gini = 0.0\nsamples = 4\nvalue = [4, 0, 0, 0]"] ;
46 -> 50 ;
51 [label="X[3] <= 49.0\ngini = 0.278\nsamples = 6\nvalue = [5, 1, 0, 0]"] ;
43 -> 51 ;
52 [label="gini = 0.0\nsamples = 1\nvalue = [0, 1, 0, 0]"] ;
51 -> 52 ;
53 [label="gini = 0.0\nsamples = 5\nvalue = [5, 0, 0, 0]"] ;
51 -> 53 ;
54 [label="X[2] <= 172.0\ngini = 0.357\nsamples = 14\nvalue = [11, 1, 2, 0]"] ;
42 -> 54 ;
55 [label="X[2] <= 170.5\ngini = 0.494\nsamples = 9\nvalue = [6, 1, 2, 0]"] ;
54 -> 55 ;
56 [label="X[1] <= 23.0\ngini = 0.406\nsamples = 8\nvalue = [6, 1, 1, 0]"] ;
55 -> 56 ;
57 [label="gini = 0.0\nsamples = 3\nvalue = [3, 0, 0, 0]"] ;
56 -> 57 ;
58 [label="X[2] <= 164.5\ngini = 0.56\nsamples = 5\nvalue = [3, 1, 1, 0]"] ;
56 -> 58 ;
59 [label="X[5] <= 3.5\ngini = 0.444\nsamples = 3\nvalue = [2, 1, 0, 0]"] ;
58 -> 59 ;
60 [label="gini = 0.5\nsamples = 2\nvalue = [1, 1, 0, 0]"] ;
59 -> 60 ;
61 [label="gini = 0.0\nsamples = 1\nvalue = [1, 0, 0, 0]"] ;
59 -> 61 ;
62 [label="gini = 0.5\nsamples = 2\nvalue = [1, 0, 1, 0]"] ;
58 -> 62 ;
63 [label="gini = 0.0\nsamples = 1\nvalue = [0, 0, 1, 0]"] ;
55 -> 63 ;
64 [label="gini = 0.0\nsamples = 5\nvalue = [5, 0, 0, 0]"] ;
54 -> 64 ;
65 [label="X[2] <= 156.5\ngini = 0.436\nsamples = 34\nvalue = [25, 3, 3, 3]"] ;
35 -> 65 ;
66 [label="X[3] <= 48.0\ngini = 0.5\nsamples = 2\nvalue = [0, 0, 1, 1]"] ;
65 -> 66 ;
67 [label="gini = 0.0\nsamples = 1\nvalue = [0, 0, 0, 1]"] ;
66 -> 67 ;
68 [label="gini = 0.0\nsamples = 1\nvalue = [0, 0, 1, 0]"] ;
66 -> 68 ;
69 [label="X[3] <= 49.5\ngini = 0.373\nsamples = 32\nvalue = [25, 3, 2, 2]"] ;
65 -> 69 ;
70 [label="gini = 0.0\nsamples = 10\nvalue = [10, 0, 0, 0]"] ;
69 -> 70 ;
71 [label="X[2] <= 161.0\ngini = 0.5\nsamples = 22\nvalue = [15, 3, 2, 2]"] ;
69 -> 71 ;
72 [label="gini = 0.0\nsamples = 1\nvalue = [0, 0, 1, 0]"] ;
71 -> 72 ;
73 [label="X[1] <= 28.5\ngini = 0.458\nsamples = 21\nvalue = [15, 3, 1, 2]"] ;
71 -> 73 ;
74 [label="X[2] <= 164.5\ngini = 0.611\nsamples = 6\nvalue = [3, 2, 0, 1]"] ;
73 -> 74 ;
75 [label="gini = 0.0\nsamples = 1\nvalue = [0, 0, 0, 1]"] ;
74 -> 75 ;
76 [label="X[3] <= 51.5\ngini = 0.48\nsamples = 5\nvalue = [3, 2, 0, 0]"] ;
74 -> 76 ;
77 [label="gini = 0.444\nsamples = 3\nvalue = [1, 2, 0, 0]"] ;
76 -> 77 ;
78 [label="gini = 0.0\nsamples = 2\nvalue = [2, 0, 0, 0]"] ;
76 -> 78 ;
79 [label="X[2] <= 175.5\ngini = 0.347\nsamples = 15\nvalue = [12, 1, 1, 1]"] ;
73 -> 79 ;
80 [label="X[3] <= 55.5\ngini = 0.272\nsamples = 13\nvalue = [11, 0, 1, 1]"] ;
79 -> 80 ;
81 [label="X[3] <= 50.5\ngini = 0.18\nsamples = 10\nvalue = [9, 0, 1, 0]"] ;
80 -> 81 ;
82 [label="X[2] <= 166.0\ngini = 0.375\nsamples = 4\nvalue = [3, 0, 1, 0]"] ;
81 -> 82 ;
83 [label="X[2] <= 163.0\ngini = 0.5\nsamples = 2\nvalue = [1, 0, 1, 0]"] ;
82 -> 83 ;
84 [label="gini = 0.0\nsamples = 1\nvalue = [1, 0, 0, 0]"] ;
83 -> 84 ;
85 [label="gini = 0.0\nsamples = 1\nvalue = [0, 0, 1, 0]"] ;
83 -> 85 ;
86 [label="gini = 0.0\nsamples = 2\nvalue = [2, 0, 0, 0]"] ;
82 -> 86 ;
87 [label="gini = 0.0\nsamples = 6\nvalue = [6, 0, 0, 0]"] ;
81 -> 87 ;
88 [label="X[1] <= 29.5\ngini = 0.444\nsamples = 3\nvalue = [2, 0, 0, 1]"] ;
80 -> 88 ;
89 [label="gini = 0.0\nsamples = 1\nvalue = [1, 0, 0, 0]"] ;
88 -> 89 ;
90 [label="X[2] <= 165.0\ngini = 0.5\nsamples = 2\nvalue = [1, 0, 0, 1]"] ;
88 -> 90 ;
91 [label="gini = 0.0\nsamples = 1\nvalue = [1, 0, 0, 0]"] ;
90 -> 91 ;
92 [label="gini = 0.0\nsamples = 1\nvalue = [0, 0, 0, 1]"] ;
90 -> 92 ;
93 [label="gini = 0.5\nsamples = 2\nvalue = [1, 1, 0, 0]"] ;
79 -> 93 ;
94 [label="X[5] <= 3.5\ngini = 0.48\nsamples = 224\nvalue = [156, 18, 34, 16]"] ;
34 -> 94 ;
95 [label="X[2] <= 171.5\ngini = 0.46\nsamples = 213\nvalue = [152, 17, 30, 14]"] ;
94 -> 95 ;
96 [label="X[1] <= 19.5\ngini = 0.506\nsamples = 53\nvalue = [35, 2, 12, 4]"] ;
95 -> 96 ;
97 [label="gini = 0.0\nsamples = 1\nvalue = [0, 0, 0, 1]"] ;
96 -> 97 ;
98 [label="X[3] <= 61.5\ngini = 0.489\nsamples = 52\nvalue = [35, 2, 12, 3]"] ;
96 -> 98 ;
99 [label="X[3] <= 60.5\ngini = 0.581\nsamples = 35\nvalue = [20, 2, 10, 3]"] ;
98 -> 99 ;
100 [label="X[1] <= 25.5\ngini = 0.499\nsamples = 27\nvalue = [18, 1, 6, 2]"] ;
99 -> 100 ;
101 [label="X[1] <= 21.5\ngini = 0.569\nsamples = 12\nvalue = [6, 0, 5, 1]"] ;
100 -> 101 ;
102 [label="X[3] <= 58.5\ngini = 0.375\nsamples = 4\nvalue = [3, 0, 0, 1]"] ;
101 -> 102 ;
103 [label="X[2] <= 167.0\ngini = 0.444\nsamples = 3\nvalue = [2, 0, 0, 1]"] ;
102 -> 103 ;
104 [label="gini = 0.0\nsamples = 1\nvalue = [1, 0, 0, 0]"] ;
103 -> 104 ;
105 [label="gini = 0.5\nsamples = 2\nvalue = [1, 0, 0, 1]"] ;
103 -> 105 ;
106 [label="gini = 0.0\nsamples = 1\nvalue = [1, 0, 0, 0]"] ;
102 -> 106 ;
107 [label="X[2] <= 170.5\ngini = 0.469\nsamples = 8\nvalue = [3, 0, 5, 0]"] ;
101 -> 107 ;
108 [label="X[1] <= 23.5\ngini = 0.5\nsamples = 6\nvalue = [3, 0, 3, 0]"] ;
107 -> 108 ;
109 [label="gini = 0.0\nsamples = 1\nvalue = [1, 0, 0, 0]"] ;
108 -> 109 ;
110 [label="X[1] <= 24.5\ngini = 0.48\nsamples = 5\nvalue = [2, 0, 3, 0]"] ;
108 -> 110 ;
111 [label="gini = 0.0\nsamples = 1\nvalue = [0, 0, 1, 0]"] ;
110 -> 111 ;
112 [label="X[3] <= 58.0\ngini = 0.5\nsamples = 4\nvalue = [2, 0, 2, 0]"] ;
110 -> 112 ;
113 [label="gini = 0.5\nsamples = 2\nvalue = [1, 0, 1, 0]"] ;
112 -> 113 ;
114 [label="gini = 0.5\nsamples = 2\nvalue = [1, 0, 1, 0]"] ;
112 -> 114 ;
115 [label="gini = 0.0\nsamples = 2\nvalue = [0, 0, 2, 0]"] ;
107 -> 115 ;
116 [label="X[3] <= 57.5\ngini = 0.347\nsamples = 15\nvalue = [12, 1, 1, 1]"] ;
100 -> 116 ;
117 [label="X[2] <= 166.5\ngini = 0.5\nsamples = 2\nvalue = [1, 0, 1, 0]"] ;
116 -> 117 ;
118 [label="gini = 0.0\nsamples = 1\nvalue = [1, 0, 0, 0]"] ;
117 -> 118 ;
119 [label="gini = 0.0\nsamples = 1\nvalue = [0, 0, 1, 0]"] ;
117 -> 119 ;
120 [label="X[2] <= 166.0\ngini = 0.272\nsamples = 13\nvalue = [11, 1, 0, 1]"] ;
116 -> 120 ;
121 [label="X[1] <= 29.0\ngini = 0.444\nsamples = 3\nvalue = [2, 1, 0, 0]"] ;
120 -> 121 ;
122 [label="gini = 0.0\nsamples = 2\nvalue = [2, 0, 0, 0]"] ;
121 -> 122 ;
123 [label="gini = 0.0\nsamples = 1\nvalue = [0, 1, 0, 0]"] ;
121 -> 123 ;
124 [label="X[1] <= 28.0\ngini = 0.18\nsamples = 10\nvalue = [9, 0, 0, 1]"] ;
120 -> 124 ;
125 [label="gini = 0.0\nsamples = 4\nvalue = [4, 0, 0, 0]"] ;
124 -> 125 ;
126 [label="X[1] <= 30.0\ngini = 0.278\nsamples = 6\nvalue = [5, 0, 0, 1]"] ;
124 -> 126 ;
127 [label="gini = 0.5\nsamples = 2\nvalue = [1, 0, 0, 1]"] ;
126 -> 127 ;
128 [label="gini = 0.0\nsamples = 4\nvalue = [4, 0, 0, 0]"] ;
126 -> 128 ;
129 [label="X[2] <= 170.5\ngini = 0.656\nsamples = 8\nvalue = [2, 1, 4, 1]"] ;
99 -> 129 ;
130 [label="X[1] <= 27.0\ngini = 0.5\nsamples = 6\nvalue = [0, 1, 4, 1]"] ;
129 -> 130 ;
131 [label="gini = 0.0\nsamples = 2\nvalue = [0, 0, 2, 0]"] ;
130 -> 131 ;
132 [label="X[1] <= 30.0\ngini = 0.625\nsamples = 4\nvalue = [0, 1, 2, 1]"] ;
130 -> 132 ;
133 [label="gini = 0.5\nsamples = 2\nvalue = [0, 1, 0, 1]"] ;
132 -> 133 ;
134 [label="gini = 0.0\nsamples = 2\nvalue = [0, 0, 2, 0]"] ;
132 -> 134 ;
135 [label="gini = 0.0\nsamples = 2\nvalue = [2, 0, 0, 0]"] ;
129 -> 135 ;
136 [label="X[2] <= 166.5\ngini = 0.208\nsamples = 17\nvalue = [15, 0, 2, 0]"] ;
98 -> 136 ;
137 [label="gini = 0.5\nsamples = 2\nvalue = [1, 0, 1, 0]"] ;
136 -> 137 ;
138 [label="X[1] <= 23.5\ngini = 0.124\nsamples = 15\nvalue = [14, 0, 1, 0]"] ;
136 -> 138 ;
139 [label="X[3] <= 63.0\ngini = 0.444\nsamples = 3\nvalue = [2, 0, 1, 0]"] ;
138 -> 139 ;
140 [label="gini = 0.0\nsamples = 2\nvalue = [2, 0, 0, 0]"] ;
139 -> 140 ;
141 [label="gini = 0.0\nsamples = 1\nvalue = [0, 0, 1, 0]"] ;
139 -> 141 ;
142 [label="gini = 0.0\nsamples = 12\nvalue = [12, 0, 0, 0]"] ;
138 -> 142 ;
143 [label="X[2] <= 173.5\ngini = 0.44\nsamples = 160\nvalue = [117, 15, 18, 10]"] ;
95 -> 143 ;
144 [label="X[3] <= 72.5\ngini = 0.229\nsamples = 24\nvalue = [21, 1, 1, 1]"] ;
143 -> 144 ;
145 [label="X[1] <= 28.5\ngini = 0.169\nsamples = 22\nvalue = [20, 1, 0, 1]"] ;
144 -> 145 ;
146 [label="X[3] <= 59.5\ngini = 0.1\nsamples = 19\nvalue = [18, 1, 0, 0]"] ;
145 -> 146 ;
147 [label="gini = 0.0\nsamples = 10\nvalue = [10, 0, 0, 0]"] ;
146 -> 147 ;
148 [label="X[2] <= 172.5\ngini = 0.198\nsamples = 9\nvalue = [8, 1, 0, 0]"] ;
146 -> 148 ;
149 [label="X[3] <= 61.0\ngini = 0.5\nsamples = 2\nvalue = [1, 1, 0, 0]"] ;
148 -> 149 ;
150 [label="gini = 0.0\nsamples = 1\nvalue = [0, 1, 0, 0]"] ;
149 -> 150 ;
151 [label="gini = 0.0\nsamples = 1\nvalue = [1, 0, 0, 0]"] ;
149 -> 151 ;
152 [label="gini = 0.0\nsamples = 7\nvalue = [7, 0, 0, 0]"] ;
148 -> 152 ;
153 [label="X[1] <= 29.5\ngini = 0.444\nsamples = 3\nvalue = [2, 0, 0, 1]"] ;
145 -> 153 ;
154 [label="gini = 0.0\nsamples = 1\nvalue = [0, 0, 0, 1]"] ;
153 -> 154 ;
155 [label="gini = 0.0\nsamples = 2\nvalue = [2, 0, 0, 0]"] ;
153 -> 155 ;
156 [label="X[1] <= 20.5\ngini = 0.5\nsamples = 2\nvalue = [1, 0, 1, 0]"] ;
144 -> 156 ;
157 [label="gini = 0.0\nsamples = 1\nvalue = [1, 0, 0, 0]"] ;
156 -> 157 ;
158 [label="gini = 0.0\nsamples = 1\nvalue = [0, 0, 1, 0]"] ;
156 -> 158 ;
159 [label="X[3] <= 59.5\ngini = 0.471\nsamples = 136\nvalue = [96, 14, 17, 9]"] ;
143 -> 159 ;
160 [label="X[2] <= 176.5\ngini = 0.675\nsamples = 13\nvalue = [6, 1, 3, 3]"] ;
159 -> 160 ;
161 [label="X[1] <= 23.0\ngini = 0.375\nsamples = 4\nvalue = [1, 0, 3, 0]"] ;
160 -> 161 ;
162 [label="gini = 0.0\nsamples = 1\nvalue = [0, 0, 1, 0]"] ;
161 -> 162 ;
163 [label="X[1] <= 27.0\ngini = 0.444\nsamples = 3\nvalue = [1, 0, 2, 0]"] ;
161 -> 163 ;
164 [label="gini = 0.5\nsamples = 2\nvalue = [1, 0, 1, 0]"] ;
163 -> 164 ;
165 [label="gini = 0.0\nsamples = 1\nvalue = [0, 0, 1, 0]"] ;
163 -> 165 ;
166 [label="X[1] <= 22.5\ngini = 0.568\nsamples = 9\nvalue = [5, 1, 0, 3]"] ;
160 -> 166 ;
167 [label="gini = 0.0\nsamples = 2\nvalue = [2, 0, 0, 0]"] ;
166 -> 167 ;
168 [label="X[1] <= 30.5\ngini = 0.612\nsamples = 7\nvalue = [3, 1, 0, 3]"] ;
166 -> 168 ;
169 [label="X[1] <= 28.5\ngini = 0.56\nsamples = 5\nvalue = [1, 1, 0, 3]"] ;
168 -> 169 ;
170 [label="X[2] <= 181.0\ngini = 0.375\nsamples = 4\nvalue = [1, 0, 0, 3]"] ;
169 -> 170 ;
171 [label="X[1] <= 25.5\ngini = 0.5\nsamples = 2\nvalue = [1, 0, 0, 1]"] ;
170 -> 171 ;
172 [label="gini = 0.0\nsamples = 1\nvalue = [1, 0, 0, 0]"] ;
171 -> 172 ;
173 [label="gini = 0.0\nsamples = 1\nvalue = [0, 0, 0, 1]"] ;
171 -> 173 ;
174 [label="gini = 0.0\nsamples = 2\nvalue = [0, 0, 0, 2]"] ;
170 -> 174 ;
175 [label="gini = 0.0\nsamples = 1\nvalue = [0, 1, 0, 0]"] ;
169 -> 175 ;
176 [label="gini = 0.0\nsamples = 2\nvalue = [2, 0, 0, 0]"] ;
168 -> 176 ;
177 [label="X[2] <= 176.5\ngini = 0.438\nsamples = 123\nvalue = [90, 13, 14, 6]"] ;
159 -> 177 ;
178 [label="X[1] <= 32.5\ngini = 0.529\nsamples = 55\nvalue = [36, 8, 7, 4]"] ;
177 -> 178 ;
179 [label="X[3] <= 63.5\ngini = 0.516\nsamples = 54\nvalue = [36, 7, 7, 4]"] ;
178 -> 179 ;
180 [label="X[1] <= 31.5\ngini = 0.423\nsamples = 26\nvalue = [19, 2, 5, 0]"] ;
179 -> 180 ;
181 [label="X[3] <= 60.5\ngini = 0.39\nsamples = 25\nvalue = [19, 2, 4, 0]"] ;
180 -> 181 ;
182 [label="X[1] <= 21.0\ngini = 0.219\nsamples = 8\nvalue = [7, 1, 0, 0]"] ;
181 -> 182 ;
183 [label="gini = 0.5\nsamples = 2\nvalue = [1, 1, 0, 0]"] ;
182 -> 183 ;
184 [label="gini = 0.0\nsamples = 6\nvalue = [6, 0, 0, 0]"] ;
182 -> 184 ;
185 [label="X[3] <= 62.5\ngini = 0.443\nsamples = 17\nvalue = [12, 1, 4, 0]"] ;
181 -> 185 ;
186 [label="X[1] <= 21.0\ngini = 0.521\nsamples = 13\nvalue = [8, 1, 4, 0]"] ;
185 -> 186 ;
187 [label="gini = 0.0\nsamples = 1\nvalue = [1, 0, 0, 0]"] ;
186 -> 187 ;
188 [label="X[1] <= 29.5\ngini = 0.542\nsamples = 12\nvalue = [7, 1, 4, 0]"] ;
186 -> 188 ;
189 [label="X[1] <= 26.5\ngini = 0.562\nsamples = 11\nvalue = [6, 1, 4, 0]"] ;
188 -> 189 ;
190 [label="X[2] <= 175.0\ngini = 0.571\nsamples = 7\nvalue = [4, 1, 2, 0]"] ;
189 -> 190 ;
191 [label="X[1] <= 24.0\ngini = 0.611\nsamples = 6\nvalue = [3, 1, 2, 0]"] ;
190 -> 191 ;
192 [label="gini = 0.0\nsamples = 1\nvalue = [0, 0, 1, 0]"] ;
191 -> 192 ;
193 [label="X[3] <= 61.5\ngini = 0.56\nsamples = 5\nvalue = [3, 1, 1, 0]"] ;
191 -> 193 ;
194 [label="gini = 0.625\nsamples = 4\nvalue = [2, 1, 1, 0]"] ;
193 -> 194 ;
195 [label="gini = 0.0\nsamples = 1\nvalue = [1, 0, 0, 0]"] ;
193 -> 195 ;
196 [label="gini = 0.0\nsamples = 1\nvalue = [1, 0, 0, 0]"] ;
190 -> 196 ;
197 [label="X[2] <= 175.0\ngini = 0.5\nsamples = 4\nvalue = [2, 0, 2, 0]"] ;
189 -> 197 ;
198 [label="gini = 0.5\nsamples = 2\nvalue = [1, 0, 1, 0]"] ;
197 -> 198 ;
199 [label="gini = 0.5\nsamples = 2\nvalue = [1, 0, 1, 0]"] ;
197 -> 199 ;
200 [label="gini = 0.0\nsamples = 1\nvalue = [1, 0, 0, 0]"] ;
188 -> 200 ;
201 [label="gini = 0.0\nsamples = 4\nvalue = [4, 0, 0, 0]"] ;
185 -> 201 ;
202 [label="gini = 0.0\nsamples = 1\nvalue = [0, 0, 1, 0]"] ;
180 -> 202 ;
203 [label="X[2] <= 174.5\ngini = 0.574\nsamples = 28\nvalue = [17, 5, 2, 4]"] ;
179 -> 203 ;
204 [label="X[1] <= 28.5\ngini = 0.611\nsamples = 12\nvalue = [6, 4, 0, 2]"] ;
203 -> 204 ;
205 [label="X[1] <= 26.5\ngini = 0.444\nsamples = 9\nvalue = [6, 3, 0, 0]"] ;
204 -> 205 ;
206 [label="X[1] <= 20.0\ngini = 0.5\nsamples = 6\nvalue = [3, 3, 0, 0]"] ;
205 -> 206 ;
207 [label="gini = 0.0\nsamples = 1\nvalue = [1, 0, 0, 0]"] ;
206 -> 207 ;
208 [label="X[3] <= 65.0\ngini = 0.48\nsamples = 5\nvalue = [2, 3, 0, 0]"] ;
206 -> 208 ;
209 [label="gini = 0.0\nsamples = 2\nvalue = [0, 2, 0, 0]"] ;
208 -> 209 ;
210 [label="X[3] <= 73.5\ngini = 0.444\nsamples = 3\nvalue = [2, 1, 0, 0]"] ;
208 -> 210 ;
211 [label="gini = 0.5\nsamples = 2\nvalue = [1, 1, 0, 0]"] ;
210 -> 211 ;
212 [label="gini = 0.0\nsamples = 1\nvalue = [1, 0, 0, 0]"] ;
210 -> 212 ;
213 [label="gini = 0.0\nsamples = 3\nvalue = [3, 0, 0, 0]"] ;
205 -> 213 ;
214 [label="X[1] <= 30.5\ngini = 0.444\nsamples = 3\nvalue = [0, 1, 0, 2]"] ;
204 -> 214 ;
215 [label="gini = 0.0\nsamples = 1\nvalue = [0, 0, 0, 1]"] ;
214 -> 215 ;
216 [label="gini = 0.5\nsamples = 2\nvalue = [0, 1, 0, 1]"] ;
214 -> 216 ;
217 [label="X[3] <= 69.0\ngini = 0.492\nsamples = 16\nvalue = [11, 1, 2, 2]"] ;
203 -> 217 ;
218 [label="X[3] <= 64.5\ngini = 0.314\nsamples = 11\nvalue = [9, 0, 1, 1]"] ;
217 -> 218 ;
219 [label="X[1] <= 29.0\ngini = 0.5\nsamples = 2\nvalue = [1, 0, 1, 0]"] ;
218 -> 219 ;
220 [label="gini = 0.0\nsamples = 1\nvalue = [0, 0, 1, 0]"] ;
219 -> 220 ;
221 [label="gini = 0.0\nsamples = 1\nvalue = [1, 0, 0, 0]"] ;
219 -> 221 ;
222 [label="X[1] <= 21.5\ngini = 0.198\nsamples = 9\nvalue = [8, 0, 0, 1]"] ;
218 -> 222 ;
223 [label="X[2] <= 175.5\ngini = 0.5\nsamples = 2\nvalue = [1, 0, 0, 1]"] ;
222 -> 223 ;
224 [label="gini = 0.0\nsamples = 1\nvalue = [0, 0, 0, 1]"] ;
223 -> 224 ;
225 [label="gini = 0.0\nsamples = 1\nvalue = [1, 0, 0, 0]"] ;
223 -> 225 ;
226 [label="gini = 0.0\nsamples = 7\nvalue = [7, 0, 0, 0]"] ;
222 -> 226 ;
227 [label="X[3] <= 77.0\ngini = 0.72\nsamples = 5\nvalue = [2, 1, 1, 1]"] ;
217 -> 227 ;
228 [label="X[2] <= 175.5\ngini = 0.5\nsamples = 2\nvalue = [0, 1, 1, 0]"] ;
227 -> 228 ;
229 [label="gini = 0.0\nsamples = 1\nvalue = [0, 1, 0, 0]"] ;
228 -> 229 ;
230 [label="gini = 0.0\nsamples = 1\nvalue = [0, 0, 1, 0]"] ;
228 -> 230 ;
231 [label="X[1] <= 29.5\ngini = 0.444\nsamples = 3\nvalue = [2, 0, 0, 1]"] ;
227 -> 231 ;
232 [label="X[3] <= 96.5\ngini = 0.5\nsamples = 2\nvalue = [1, 0, 0, 1]"] ;
231 -> 232 ;
233 [label="gini = 0.0\nsamples = 1\nvalue = [0, 0, 0, 1]"] ;
232 -> 233 ;
234 [label="gini = 0.0\nsamples = 1\nvalue = [1, 0, 0, 0]"] ;
232 -> 234 ;
235 [label="gini = 0.0\nsamples = 1\nvalue = [1, 0, 0, 0]"] ;
231 -> 235 ;
236 [label="gini = 0.0\nsamples = 1\nvalue = [0, 1, 0, 0]"] ;
178 -> 236 ;
237 [label="X[2] <= 178.5\ngini = 0.353\nsamples = 68\nvalue = [54, 5, 7, 2]"] ;
177 -> 237 ;
238 [label="X[3] <= 61.5\ngini = 0.163\nsamples = 23\nvalue = [21, 1, 1, 0]"] ;
237 -> 238 ;
239 [label="X[1] <= 24.0\ngini = 0.5\nsamples = 2\nvalue = [1, 1, 0, 0]"] ;
238 -> 239 ;
240 [label="gini = 0.0\nsamples = 1\nvalue = [0, 1, 0, 0]"] ;
239 -> 240 ;
241 [label="gini = 0.0\nsamples = 1\nvalue = [1, 0, 0, 0]"] ;
239 -> 241 ;
242 [label="X[3] <= 69.0\ngini = 0.091\nsamples = 21\nvalue = [20, 0, 1, 0]"] ;
238 -> 242 ;
243 [label="X[3] <= 67.0\ngini = 0.165\nsamples = 11\nvalue = [10, 0, 1, 0]"] ;
242 -> 243 ;
244 [label="gini = 0.0\nsamples = 7\nvalue = [7, 0, 0, 0]"] ;
243 -> 244 ;
245 [label="X[2] <= 177.5\ngini = 0.375\nsamples = 4\nvalue = [3, 0, 1, 0]"] ;
243 -> 245 ;
246 [label="gini = 0.0\nsamples = 2\nvalue = [2, 0, 0, 0]"] ;
245 -> 246 ;
247 [label="X[1] <= 28.0\ngini = 0.5\nsamples = 2\nvalue = [1, 0, 1, 0]"] ;
245 -> 247 ;
248 [label="gini = 0.0\nsamples = 1\nvalue = [0, 0, 1, 0]"] ;
247 -> 248 ;
249 [label="gini = 0.0\nsamples = 1\nvalue = [1, 0, 0, 0]"] ;
247 -> 249 ;
250 [label="gini = 0.0\nsamples = 10\nvalue = [10, 0, 0, 0]"] ;
242 -> 250 ;
251 [label="X[1] <= 29.5\ngini = 0.435\nsamples = 45\nvalue = [33, 4, 6, 2]"] ;
237 -> 251 ;
252 [label="X[1] <= 24.5\ngini = 0.372\nsamples = 36\nvalue = [28, 1, 5, 2]"] ;
251 -> 252 ;
253 [label="X[1] <= 21.5\ngini = 0.461\nsamples = 23\nvalue = [16, 0, 5, 2]"] ;
252 -> 253 ;
254 [label="gini = 0.0\nsamples = 8\nvalue = [8, 0, 0, 0]"] ;
253 -> 254 ;
255 [label="X[2] <= 179.5\ngini = 0.587\nsamples = 15\nvalue = [8, 0, 5, 2]"] ;
253 -> 255 ;
256 [label="gini = 0.0\nsamples = 1\nvalue = [0, 0, 1, 0]"] ;
255 -> 256 ;
257 [label="X[3] <= 94.5\ngini = 0.571\nsamples = 14\nvalue = [8, 0, 4, 2]"] ;
255 -> 257 ;
258 [label="X[3] <= 69.5\ngini = 0.544\nsamples = 13\nvalue = [8, 0, 3, 2]"] ;
257 -> 258 ;
259 [label="X[2] <= 182.5\ngini = 0.653\nsamples = 7\nvalue = [3, 0, 2, 2]"] ;
258 -> 259 ;
260 [label="X[1] <= 22.5\ngini = 0.611\nsamples = 6\nvalue = [3, 0, 1, 2]"] ;
259 -> 260 ;
261 [label="gini = 0.0\nsamples = 1\nvalue = [1, 0, 0, 0]"] ;
260 -> 261 ;
262 [label="X[3] <= 67.5\ngini = 0.64\nsamples = 5\nvalue = [2, 0, 1, 2]"] ;
260 -> 262 ;
263 [label="gini = 0.5\nsamples = 2\nvalue = [1, 0, 0, 1]"] ;
262 -> 263 ;
264 [label="gini = 0.667\nsamples = 3\nvalue = [1, 0, 1, 1]"] ;
262 -> 264 ;
265 [label="gini = 0.0\nsamples = 1\nvalue = [0, 0, 1, 0]"] ;
259 -> 265 ;
266 [label="X[3] <= 87.0\ngini = 0.278\nsamples = 6\nvalue = [5, 0, 1, 0]"] ;
258 -> 266 ;
267 [label="gini = 0.0\nsamples = 4\nvalue = [4, 0, 0, 0]"] ;
266 -> 267 ;
268 [label="X[1] <= 23.0\ngini = 0.5\nsamples = 2\nvalue = [1, 0, 1, 0]"] ;
266 -> 268 ;
269 [label="gini = 0.0\nsamples = 1\nvalue = [0, 0, 1, 0]"] ;
268 -> 269 ;
270 [label="gini = 0.0\nsamples = 1\nvalue = [1, 0, 0, 0]"] ;
268 -> 270 ;
271 [label="gini = 0.0\nsamples = 1\nvalue = [0, 0, 1, 0]"] ;
257 -> 271 ;
272 [label="X[1] <= 27.5\ngini = 0.142\nsamples = 13\nvalue = [12, 1, 0, 0]"] ;
252 -> 272 ;
273 [label="gini = 0.0\nsamples = 7\nvalue = [7, 0, 0, 0]"] ;
272 -> 273 ;
274 [label="X[3] <= 87.0\ngini = 0.278\nsamples = 6\nvalue = [5, 1, 0, 0]"] ;
272 -> 274 ;
275 [label="X[2] <= 181.0\ngini = 0.5\nsamples = 2\nvalue = [1, 1, 0, 0]"] ;
274 -> 275 ;
276 [label="gini = 0.0\nsamples = 1\nvalue = [0, 1, 0, 0]"] ;
275 -> 276 ;
277 [label="gini = 0.0\nsamples = 1\nvalue = [1, 0, 0, 0]"] ;
275 -> 277 ;
278 [label="gini = 0.0\nsamples = 4\nvalue = [4, 0, 0, 0]"] ;
274 -> 278 ;
279 [label="X[3] <= 79.5\ngini = 0.568\nsamples = 9\nvalue = [5, 3, 1, 0]"] ;
251 -> 279 ;
280 [label="X[2] <= 181.0\ngini = 0.625\nsamples = 4\nvalue = [1, 2, 1, 0]"] ;
279 -> 280 ;
281 [label="gini = 0.0\nsamples = 1\nvalue = [1, 0, 0, 0]"] ;
280 -> 281 ;
282 [label="X[1] <= 30.5\ngini = 0.444\nsamples = 3\nvalue = [0, 2, 1, 0]"] ;
280 -> 282 ;
283 [label="gini = 0.0\nsamples = 1\nvalue = [0, 1, 0, 0]"] ;
282 -> 283 ;
284 [label="gini = 0.5\nsamples = 2\nvalue = [0, 1, 1, 0]"] ;
282 -> 284 ;
285 [label="X[3] <= 94.5\ngini = 0.32\nsamples = 5\nvalue = [4, 1, 0, 0]"] ;
279 -> 285 ;
286 [label="gini = 0.0\nsamples = 4\nvalue = [4, 0, 0, 0]"] ;
285 -> 286 ;
287 [label="gini = 0.0\nsamples = 1\nvalue = [0, 1, 0, 0]"] ;
285 -> 287 ;
288 [label="X[1] <= 27.5\ngini = 0.694\nsamples = 11\nvalue = [4, 1, 4, 2]"] ;
94 -> 288 ;
289 [label="X[2] <= 172.0\ngini = 0.593\nsamples = 9\nvalue = [4, 1, 4, 0]"] ;
288 -> 289 ;
290 [label="X[2] <= 167.0\ngini = 0.444\nsamples = 6\nvalue = [4, 0, 2, 0]"] ;
289 -> 290 ;
291 [label="X[1] <= 22.5\ngini = 0.5\nsamples = 4\nvalue = [2, 0, 2, 0]"] ;
290 -> 291 ;
292 [label="gini = 0.0\nsamples = 2\nvalue = [2, 0, 0, 0]"] ;
291 -> 292 ;
293 [label="gini = 0.0\nsamples = 2\nvalue = [0, 0, 2, 0]"] ;
291 -> 293 ;
294 [label="gini = 0.0\nsamples = 2\nvalue = [2, 0, 0, 0]"] ;
290 -> 294 ;
295 [label="X[1] <= 23.0\ngini = 0.444\nsamples = 3\nvalue = [0, 1, 2, 0]"] ;
289 -> 295 ;
296 [label="gini = 0.0\nsamples = 1\nvalue = [0, 1, 0, 0]"] ;
295 -> 296 ;
297 [label="gini = 0.0\nsamples = 2\nvalue = [0, 0, 2, 0]"] ;
295 -> 297 ;
298 [label="gini = 0.0\nsamples = 2\nvalue = [0, 0, 0, 2]"] ;
288 -> 298 ;
299 [label="X[3] <= 98.5\ngini = 0.105\nsamples = 36\nvalue = [34, 0, 2, 0]"] ;
13 -> 299 ;
300 [label="X[1] <= 37.5\ngini = 0.056\nsamples = 35\nvalue = [34, 0, 1, 0]"] ;
299 -> 300 ;
301 [label="gini = 0.0\nsamples = 24\nvalue = [24, 0, 0, 0]"] ;
300 -> 301 ;
302 [label="X[1] <= 38.5\ngini = 0.165\nsamples = 11\nvalue = [10, 0, 1, 0]"] ;
300 -> 302 ;
303 [label="X[3] <= 60.5\ngini = 0.375\nsamples = 4\nvalue = [3, 0, 1, 0]"] ;
302 -> 303 ;
304 [label="gini = 0.0\nsamples = 2\nvalue = [2, 0, 0, 0]"] ;
303 -> 304 ;
305 [label="gini = 0.5\nsamples = 2\nvalue = [1, 0, 1, 0]"] ;
303 -> 305 ;
306 [label="gini = 0.0\nsamples = 7\nvalue = [7, 0, 0, 0]"] ;
302 -> 306 ;
307 [label="gini = 0.0\nsamples = 1\nvalue = [0, 0, 1, 0]"] ;
299 -> 307 ;
308 [label="X[2] <= 174.5\ngini = 0.665\nsamples = 39\nvalue = [13, 14, 12, 0]"] ;
12 -> 308 ;
309 [label="X[3] <= 58.5\ngini = 0.32\nsamples = 5\nvalue = [0, 4, 1, 0]"] ;
308 -> 309 ;
310 [label="gini = 0.0\nsamples = 1\nvalue = [0, 0, 1, 0]"] ;
309 -> 310 ;
311 [label="gini = 0.0\nsamples = 4\nvalue = [0, 4, 0, 0]"] ;
309 -> 311 ;
312 [label="X[1] <= 33.5\ngini = 0.663\nsamples = 34\nvalue = [13, 10, 11, 0]"] ;
308 -> 312 ;
313 [label="X[1] <= 31.5\ngini = 0.654\nsamples = 32\nvalue = [13, 8, 11, 0]"] ;
312 -> 313 ;
314 [label="X[1] <= 27.5\ngini = 0.656\nsamples = 27\nvalue = [9, 7, 11, 0]"] ;
313 -> 314 ;
315 [label="X[1] <= 26.5\ngini = 0.623\nsamples = 17\nvalue = [8, 3, 6, 0]"] ;
314 -> 315 ;
316 [label="X[3] <= 73.5\ngini = 0.611\nsamples = 12\nvalue = [4, 2, 6, 0]"] ;
315 -> 316 ;
317 [label="X[3] <= 67.0\ngini = 0.494\nsamples = 9\nvalue = [4, 0, 5, 0]"] ;
316 -> 317 ;
318 [label="gini = 0.0\nsamples = 2\nvalue = [0, 0, 2, 0]"] ;
317 -> 318 ;
319 [label="X[1] <= 21.5\ngini = 0.49\nsamples = 7\nvalue = [4, 0, 3, 0]"] ;
317 -> 319 ;
320 [label="gini = 0.0\nsamples = 1\nvalue = [0, 0, 1, 0]"] ;
319 -> 320 ;
321 [label="X[3] <= 69.5\ngini = 0.444\nsamples = 6\nvalue = [4, 0, 2, 0]"] ;
319 -> 321 ;
322 [label="gini = 0.0\nsamples = 3\nvalue = [3, 0, 0, 0]"] ;
321 -> 322 ;
323 [label="X[3] <= 71.5\ngini = 0.444\nsamples = 3\nvalue = [1, 0, 2, 0]"] ;
321 -> 323 ;
324 [label="gini = 0.0\nsamples = 2\nvalue = [0, 0, 2, 0]"] ;
323 -> 324 ;
325 [label="gini = 0.0\nsamples = 1\nvalue = [1, 0, 0, 0]"] ;
323 -> 325 ;
326 [label="X[1] <= 21.5\ngini = 0.444\nsamples = 3\nvalue = [0, 2, 1, 0]"] ;
316 -> 326 ;
327 [label="gini = 0.0\nsamples = 1\nvalue = [0, 1, 0, 0]"] ;
326 -> 327 ;
328 [label="X[2] <= 184.5\ngini = 0.5\nsamples = 2\nvalue = [0, 1, 1, 0]"] ;
326 -> 328 ;
329 [label="gini = 0.0\nsamples = 1\nvalue = [0, 0, 1, 0]"] ;
328 -> 329 ;
330 [label="gini = 0.0\nsamples = 1\nvalue = [0, 1, 0, 0]"] ;
328 -> 330 ;
331 [label="X[3] <= 68.5\ngini = 0.32\nsamples = 5\nvalue = [4, 1, 0, 0]"] ;
315 -> 331 ;
332 [label="gini = 0.0\nsamples = 2\nvalue = [2, 0, 0, 0]"] ;
331 -> 332 ;
333 [label="X[2] <= 183.5\ngini = 0.444\nsamples = 3\nvalue = [2, 1, 0, 0]"] ;
331 -> 333 ;
334 [label="X[3] <= 75.0\ngini = 0.5\nsamples = 2\nvalue = [1, 1, 0, 0]"] ;
333 -> 334 ;
335 [label="gini = 0.0\nsamples = 1\nvalue = [0, 1, 0, 0]"] ;
334 -> 335 ;
336 [label="gini = 0.0\nsamples = 1\nvalue = [1, 0, 0, 0]"] ;
334 -> 336 ;
337 [label="gini = 0.0\nsamples = 1\nvalue = [1, 0, 0, 0]"] ;
333 -> 337 ;
338 [label="X[3] <= 76.0\ngini = 0.58\nsamples = 10\nvalue = [1, 4, 5, 0]"] ;
314 -> 338 ;
339 [label="X[2] <= 179.0\ngini = 0.571\nsamples = 7\nvalue = [1, 4, 2, 0]"] ;
338 -> 339 ;
340 [label="X[2] <= 176.5\ngini = 0.625\nsamples = 4\nvalue = [1, 1, 2, 0]"] ;
339 -> 340 ;
341 [label="X[1] <= 30.5\ngini = 0.5\nsamples = 2\nvalue = [1, 1, 0, 0]"] ;
340 -> 341 ;
342 [label="gini = 0.0\nsamples = 1\nvalue = [1, 0, 0, 0]"] ;
341 -> 342 ;
343 [label="gini = 0.0\nsamples = 1\nvalue = [0, 1, 0, 0]"] ;
341 -> 343 ;
344 [label="gini = 0.0\nsamples = 2\nvalue = [0, 0, 2, 0]"] ;
340 -> 344 ;
345 [label="gini = 0.0\nsamples = 3\nvalue = [0, 3, 0, 0]"] ;
339 -> 345 ;
346 [label="gini = 0.0\nsamples = 3\nvalue = [0, 0, 3, 0]"] ;
338 -> 346 ;
347 [label="X[3] <= 75.0\ngini = 0.32\nsamples = 5\nvalue = [4, 1, 0, 0]"] ;
313 -> 347 ;
348 [label="X[2] <= 181.0\ngini = 0.5\nsamples = 2\nvalue = [1, 1, 0, 0]"] ;
347 -> 348 ;
349 [label="gini = 0.0\nsamples = 1\nvalue = [1, 0, 0, 0]"] ;
348 -> 349 ;
350 [label="gini = 0.0\nsamples = 1\nvalue = [0, 1, 0, 0]"] ;
348 -> 350 ;
351 [label="gini = 0.0\nsamples = 3\nvalue = [3, 0, 0, 0]"] ;
347 -> 351 ;
352 [label="gini = 0.0\nsamples = 2\nvalue = [0, 2, 0, 0]"] ;
312 -> 352 ;
353 [label="X[5] <= 7.5\ngini = 0.36\nsamples = 735\nvalue = [580, 31, 79, 45]"] ;
11 -> 353 ;
354 [label="X[2] <= 177.5\ngini = 0.077\nsamples = 152\nvalue = [146, 1, 4, 1]"] ;
353 -> 354 ;
355 [label="X[1] <= 19.5\ngini = 0.023\nsamples = 86\nvalue = [85, 1, 0, 0]"] ;
354 -> 355 ;
356 [label="X[1] <= 18.5\ngini = 0.05\nsamples = 39\nvalue = [38, 1, 0, 0]"] ;
355 -> 356 ;
357 [label="gini = 0.0\nsamples = 29\nvalue = [29, 0, 0, 0]"] ;
356 -> 357 ;
358 [label="X[2] <= 170.5\ngini = 0.18\nsamples = 10\nvalue = [9, 1, 0, 0]"] ;
356 -> 358 ;
359 [label="gini = 0.0\nsamples = 9\nvalue = [9, 0, 0, 0]"] ;
358 -> 359 ;
360 [label="gini = 0.0\nsamples = 1\nvalue = [0, 1, 0, 0]"] ;
358 -> 360 ;
361 [label="gini = 0.0\nsamples = 47\nvalue = [47, 0, 0, 0]"] ;
355 -> 361 ;
362 [label="X[2] <= 178.5\ngini = 0.142\nsamples = 66\nvalue = [61, 0, 4, 1]"] ;
354 -> 362 ;
363 [label="X[1] <= 22.0\ngini = 0.379\nsamples = 13\nvalue = [10, 0, 2, 1]"] ;
362 -> 363 ;
364 [label="X[1] <= 19.5\ngini = 0.18\nsamples = 10\nvalue = [9, 0, 0, 1]"] ;
363 -> 364 ;
365 [label="gini = 0.0\nsamples = 7\nvalue = [7, 0, 0, 0]"] ;
364 -> 365 ;
366 [label="gini = 0.444\nsamples = 3\nvalue = [2, 0, 0, 1]"] ;
364 -> 366 ;
367 [label="gini = 0.444\nsamples = 3\nvalue = [1, 0, 2, 0]"] ;
363 -> 367 ;
368 [label="X[3] <= 59.5\ngini = 0.073\nsamples = 53\nvalue = [51, 0, 2, 0]"] ;
362 -> 368 ;
369 [label="X[1] <= 20.0\ngini = 0.444\nsamples = 3\nvalue = [2, 0, 1, 0]"] ;
368 -> 369 ;
370 [label="gini = 0.5\nsamples = 2\nvalue = [1, 0, 1, 0]"] ;
369 -> 370 ;
371 [label="gini = 0.0\nsamples = 1\nvalue = [1, 0, 0, 0]"] ;
369 -> 371 ;
372 [label="X[3] <= 70.5\ngini = 0.039\nsamples = 50\nvalue = [49, 0, 1, 0]"] ;
368 -> 372 ;
373 [label="gini = 0.0\nsamples = 41\nvalue = [41, 0, 0, 0]"] ;
372 -> 373 ;
374 [label="X[1] <= 20.0\ngini = 0.198\nsamples = 9\nvalue = [8, 0, 1, 0]"] ;
372 -> 374 ;
375 [label="gini = 0.0\nsamples = 3\nvalue = [3, 0, 0, 0]"] ;
374 -> 375 ;
376 [label="X[1] <= 24.0\ngini = 0.278\nsamples = 6\nvalue = [5, 0, 1, 0]"] ;
374 -> 376 ;
377 [label="gini = 0.444\nsamples = 3\nvalue = [2, 0, 1, 0]"] ;
376 -> 377 ;
378 [label="gini = 0.0\nsamples = 3\nvalue = [3, 0, 0, 0]"] ;
376 -> 378 ;
379 [label="X[5] <= 9.5\ngini = 0.421\nsamples = 583\nvalue = [434, 30, 75, 44]"] ;
353 -> 379 ;
380 [label="X[1] <= 17.5\ngini = 0.632\nsamples = 19\nvalue = [6, 0, 9, 4]"] ;
379 -> 380 ;
381 [label="gini = 0.0\nsamples = 1\nvalue = [0, 0, 0, 1]"] ;
380 -> 381 ;
382 [label="X[2] <= 174.0\ngini = 0.611\nsamples = 18\nvalue = [6, 0, 9, 3]"] ;
380 -> 382 ;
383 [label="X[3] <= 73.5\ngini = 0.633\nsamples = 16\nvalue = [6, 0, 7, 3]"] ;
382 -> 383 ;
384 [label="X[1] <= 27.5\ngini = 0.569\nsamples = 12\nvalue = [3, 0, 7, 2]"] ;
383 -> 384 ;
385 [label="X[2] <= 171.5\ngini = 0.37\nsamples = 9\nvalue = [1, 0, 7, 1]"] ;
384 -> 385 ;
386 [label="X[1] <= 20.5\ngini = 0.219\nsamples = 8\nvalue = [1, 0, 7, 0]"] ;
385 -> 386 ;
387 [label="X[1] <= 19.0\ngini = 0.5\nsamples = 2\nvalue = [1, 0, 1, 0]"] ;
386 -> 387 ;
388 [label="gini = 0.0\nsamples = 1\nvalue = [0, 0, 1, 0]"] ;
387 -> 388 ;
389 [label="gini = 0.0\nsamples = 1\nvalue = [1, 0, 0, 0]"] ;
387 -> 389 ;
390 [label="gini = 0.0\nsamples = 6\nvalue = [0, 0, 6, 0]"] ;
386 -> 390 ;
391 [label="gini = 0.0\nsamples = 1\nvalue = [0, 0, 0, 1]"] ;
385 -> 391 ;
392 [label="X[1] <= 30.0\ngini = 0.444\nsamples = 3\nvalue = [2, 0, 0, 1]"] ;
384 -> 392 ;
393 [label="gini = 0.0\nsamples = 2\nvalue = [2, 0, 0, 0]"] ;
392 -> 393 ;
394 [label="gini = 0.0\nsamples = 1\nvalue = [0, 0, 0, 1]"] ;
392 -> 394 ;
395 [label="X[1] <= 21.0\ngini = 0.375\nsamples = 4\nvalue = [3, 0, 0, 1]"] ;
383 -> 395 ;
396 [label="gini = 0.0\nsamples = 1\nvalue = [0, 0, 0, 1]"] ;
395 -> 396 ;
397 [label="gini = 0.0\nsamples = 3\nvalue = [3, 0, 0, 0]"] ;
395 -> 397 ;
398 [label="gini = 0.0\nsamples = 2\nvalue = [0, 0, 2, 0]"] ;
382 -> 398 ;
399 [label="X[5] <= 12.5\ngini = 0.403\nsamples = 564\nvalue = [428, 30, 66, 40]"] ;
379 -> 399 ;
400 [label="X[5] <= 10.5\ngini = 0.222\nsamples = 63\nvalue = [55, 0, 8, 0]"] ;
399 -> 400 ;
401 [label="X[1] <= 21.5\ngini = 0.417\nsamples = 27\nvalue = [19, 0, 8, 0]"] ;
400 -> 401 ;
402 [label="gini = 0.0\nsamples = 2\nvalue = [0, 0, 2, 0]"] ;
401 -> 402 ;
403 [label="X[3] <= 72.5\ngini = 0.365\nsamples = 25\nvalue = [19, 0, 6, 0]"] ;
401 -> 403 ;
404 [label="X[1] <= 22.5\ngini = 0.142\nsamples = 13\nvalue = [12, 0, 1, 0]"] ;
403 -> 404 ;
405 [label="X[3] <= 64.5\ngini = 0.444\nsamples = 3\nvalue = [2, 0, 1, 0]"] ;
404 -> 405 ;
406 [label="gini = 0.0\nsamples = 1\nvalue = [1, 0, 0, 0]"] ;
405 -> 406 ;
407 [label="X[2] <= 178.5\ngini = 0.5\nsamples = 2\nvalue = [1, 0, 1, 0]"] ;
405 -> 407 ;
408 [label="gini = 0.0\nsamples = 1\nvalue = [0, 0, 1, 0]"] ;
407 -> 408 ;
409 [label="gini = 0.0\nsamples = 1\nvalue = [1, 0, 0, 0]"] ;
407 -> 409 ;
410 [label="gini = 0.0\nsamples = 10\nvalue = [10, 0, 0, 0]"] ;
404 -> 410 ;
411 [label="X[1] <= 23.5\ngini = 0.486\nsamples = 12\nvalue = [7, 0, 5, 0]"] ;
403 -> 411 ;
412 [label="gini = 0.0\nsamples = 2\nvalue = [2, 0, 0, 0]"] ;
411 -> 412 ;
413 [label="X[1] <= 24.5\ngini = 0.5\nsamples = 10\nvalue = [5, 0, 5, 0]"] ;
411 -> 413 ;
414 [label="gini = 0.0\nsamples = 1\nvalue = [0, 0, 1, 0]"] ;
413 -> 414 ;
415 [label="X[3] <= 80.0\ngini = 0.494\nsamples = 9\nvalue = [5, 0, 4, 0]"] ;
413 -> 415 ;
416 [label="X[1] <= 28.0\ngini = 0.444\nsamples = 6\nvalue = [4, 0, 2, 0]"] ;
415 -> 416 ;
417 [label="X[3] <= 75.0\ngini = 0.5\nsamples = 4\nvalue = [2, 0, 2, 0]"] ;
416 -> 417 ;
418 [label="X[3] <= 73.5\ngini = 0.444\nsamples = 3\nvalue = [1, 0, 2, 0]"] ;
417 -> 418 ;
419 [label="X[1] <= 26.5\ngini = 0.5\nsamples = 2\nvalue = [1, 0, 1, 0]"] ;
418 -> 419 ;
420 [label="gini = 0.0\nsamples = 1\nvalue = [0, 0, 1, 0]"] ;
419 -> 420 ;
421 [label="gini = 0.0\nsamples = 1\nvalue = [1, 0, 0, 0]"] ;
419 -> 421 ;
422 [label="gini = 0.0\nsamples = 1\nvalue = [0, 0, 1, 0]"] ;
418 -> 422 ;
423 [label="gini = 0.0\nsamples = 1\nvalue = [1, 0, 0, 0]"] ;
417 -> 423 ;
424 [label="gini = 0.0\nsamples = 2\nvalue = [2, 0, 0, 0]"] ;
416 -> 424 ;
425 [label="X[1] <= 27.0\ngini = 0.444\nsamples = 3\nvalue = [1, 0, 2, 0]"] ;
415 -> 425 ;
426 [label="gini = 0.0\nsamples = 1\nvalue = [1, 0, 0, 0]"] ;
425 -> 426 ;
427 [label="gini = 0.0\nsamples = 2\nvalue = [0, 0, 2, 0]"] ;
425 -> 427 ;
428 [label="gini = 0.0\nsamples = 36\nvalue = [36, 0, 0, 0]"] ;
400 -> 428 ;
429 [label="X[2] <= 169.5\ngini = 0.422\nsamples = 501\nvalue = [373, 30, 58, 40]"] ;
399 -> 429 ;
430 [label="X[2] <= 165.5\ngini = 0.391\nsamples = 353\nvalue = [270, 13, 48, 22]"] ;
429 -> 430 ;
431 [label="X[1] <= 35.5\ngini = 0.417\nsamples = 285\nvalue = [212, 10, 45, 18]"] ;
430 -> 431 ;
432 [label="X[3] <= 46.5\ngini = 0.434\nsamples = 270\nvalue = [197, 10, 45, 18]"] ;
431 -> 432 ;
433 [label="X[1] <= 18.5\ngini = 0.339\nsamples = 131\nvalue = [105, 2, 16, 8]"] ;
432 -> 433 ;
434 [label="X[2] <= 153.5\ngini = 0.375\nsamples = 88\nvalue = [68, 2, 14, 4]"] ;
433 -> 434 ;
435 [label="X[2] <= 139.5\ngini = 0.343\nsamples = 73\nvalue = [58, 0, 11, 4]"] ;
434 -> 435 ;
436 [label="gini = 0.0\nsamples = 5\nvalue = [5, 0, 0, 0]"] ;
435 -> 436 ;
437 [label="X[2] <= 142.0\ngini = 0.363\nsamples = 68\nvalue = [53, 0, 11, 4]"] ;
435 -> 437 ;
438 [label="gini = 0.611\nsamples = 6\nvalue = [3, 0, 2, 1]"] ;
437 -> 438 ;
439 [label="X[2] <= 149.5\ngini = 0.326\nsamples = 62\nvalue = [50, 0, 9, 3]"] ;
437 -> 439 ;
440 [label="X[3] <= 39.0\ngini = 0.283\nsamples = 41\nvalue = [34, 0, 7, 0]"] ;
439 -> 440 ;
441 [label="X[1] <= 17.0\ngini = 0.32\nsamples = 30\nvalue = [24, 0, 6, 0]"] ;
440 -> 441 ;
442 [label="X[3] <= 35.0\ngini = 0.33\nsamples = 24\nvalue = [19, 0, 5, 0]"] ;
441 -> 442 ;
443 [label="X[3] <= 33.5\ngini = 0.346\nsamples = 9\nvalue = [7, 0, 2, 0]"] ;
442 -> 443 ;
444 [label="gini = 0.32\nsamples = 5\nvalue = [4, 0, 1, 0]"] ;
443 -> 444 ;
445 [label="gini = 0.375\nsamples = 4\nvalue = [3, 0, 1, 0]"] ;
443 -> 445 ;
446 [label="X[3] <= 36.5\ngini = 0.32\nsamples = 15\nvalue = [12, 0, 3, 0]"] ;
442 -> 446 ;
447 [label="gini = 0.32\nsamples = 5\nvalue = [4, 0, 1, 0]"] ;
446 -> 447 ;
448 [label="X[3] <= 37.5\ngini = 0.32\nsamples = 10\nvalue = [8, 0, 2, 0]"] ;
446 -> 448 ;
449 [label="gini = 0.32\nsamples = 5\nvalue = [4, 0, 1, 0]"] ;
448 -> 449 ;
450 [label="gini = 0.32\nsamples = 5\nvalue = [4, 0, 1, 0]"] ;
448 -> 450 ;
451 [label="gini = 0.278\nsamples = 6\nvalue = [5, 0, 1, 0]"] ;
441 -> 451 ;
452 [label="X[3] <= 41.5\ngini = 0.165\nsamples = 11\nvalue = [10, 0, 1, 0]"] ;
440 -> 452 ;
453 [label="gini = 0.0\nsamples = 5\nvalue = [5, 0, 0, 0]"] ;
452 -> 453 ;
454 [label="gini = 0.278\nsamples = 6\nvalue = [5, 0, 1, 0]"] ;
452 -> 454 ;
455 [label="X[1] <= 16.5\ngini = 0.39\nsamples = 21\nvalue = [16, 0, 2, 3]"] ;
439 -> 455 ;
456 [label="X[3] <= 43.5\ngini = 0.418\nsamples = 15\nvalue = [11, 0, 1, 3]"] ;
455 -> 456 ;
457 [label="X[2] <= 151.0\ngini = 0.42\nsamples = 10\nvalue = [7, 0, 0, 3]"] ;
456 -> 457 ;
458 [label="gini = 0.375\nsamples = 4\nvalue = [3, 0, 0, 1]"] ;
457 -> 458 ;
459 [label="gini = 0.444\nsamples = 6\nvalue = [4, 0, 0, 2]"] ;
457 -> 459 ;
460 [label="gini = 0.32\nsamples = 5\nvalue = [4, 0, 1, 0]"] ;
456 -> 460 ;
461 [label="gini = 0.278\nsamples = 6\nvalue = [5, 0, 1, 0]"] ;
455 -> 461 ;
462 [label="X[1] <= 17.5\ngini = 0.498\nsamples = 15\nvalue = [10, 2, 3, 0]"] ;
434 -> 462 ;
463 [label="X[5] <= 16.5\ngini = 0.625\nsamples = 8\nvalue = [4, 2, 2, 0]"] ;
462 -> 463 ;
464 [label="gini = 0.611\nsamples = 6\nvalue = [3, 2, 1, 0]"] ;
463 -> 464 ;
465 [label="gini = 0.5\nsamples = 2\nvalue = [1, 0, 1, 0]"] ;
463 -> 465 ;
466 [label="X[2] <= 156.5\ngini = 0.245\nsamples = 7\nvalue = [6, 0, 1, 0]"] ;
462 -> 466 ;
467 [label="gini = 0.375\nsamples = 4\nvalue = [3, 0, 1, 0]"] ;
466 -> 467 ;
468 [label="gini = 0.0\nsamples = 3\nvalue = [3, 0, 0, 0]"] ;
466 -> 468 ;
469 [label="X[3] <= 44.0\ngini = 0.249\nsamples = 43\nvalue = [37, 0, 2, 4]"] ;
433 -> 469 ;
470 [label="X[3] <= 39.5\ngini = 0.226\nsamples = 40\nvalue = [35, 0, 2, 3]"] ;
469 -> 470 ;
471 [label="X[1] <= 24.0\ngini = 0.355\nsamples = 19\nvalue = [15, 0, 2, 2]"] ;
470 -> 471 ;
472 [label="X[1] <= 19.5\ngini = 0.406\nsamples = 16\nvalue = [12, 0, 2, 2]"] ;
471 -> 472 ;
473 [label="gini = 0.278\nsamples = 6\nvalue = [5, 0, 1, 0]"] ;
472 -> 473 ;
474 [label="X[2] <= 145.0\ngini = 0.46\nsamples = 10\nvalue = [7, 0, 1, 2]"] ;
472 -> 474 ;
475 [label="gini = 0.375\nsamples = 4\nvalue = [3, 0, 0, 1]"] ;
474 -> 475 ;
476 [label="gini = 0.5\nsamples = 6\nvalue = [4, 0, 1, 1]"] ;
474 -> 476 ;
477 [label="gini = 0.0\nsamples = 3\nvalue = [3, 0, 0, 0]"] ;
471 -> 477 ;
478 [label="X[2] <= 153.0\ngini = 0.091\nsamples = 21\nvalue = [20, 0, 0, 1]"] ;
470 -> 478 ;
479 [label="gini = 0.0\nsamples = 10\nvalue = [10, 0, 0, 0]"] ;
478 -> 479 ;
480 [label="X[5] <= 16.5\ngini = 0.165\nsamples = 11\nvalue = [10, 0, 0, 1]"] ;
478 -> 480 ;
481 [label="gini = 0.278\nsamples = 6\nvalue = [5, 0, 0, 1]"] ;
480 -> 481 ;
482 [label="gini = 0.0\nsamples = 5\nvalue = [5, 0, 0, 0]"] ;
480 -> 482 ;
483 [label="X[1] <= 28.0\ngini = 0.444\nsamples = 3\nvalue = [2, 0, 0, 1]"] ;
469 -> 483 ;
484 [label="gini = 0.0\nsamples = 1\nvalue = [1, 0, 0, 0]"] ;
483 -> 484 ;
485 [label="X[1] <= 32.0\ngini = 0.5\nsamples = 2\nvalue = [1, 0, 0, 1]"] ;
483 -> 485 ;
486 [label="gini = 0.0\nsamples = 1\nvalue = [0, 0, 0, 1]"] ;
485 -> 486 ;
487 [label="gini = 0.0\nsamples = 1\nvalue = [1, 0, 0, 0]"] ;
485 -> 487 ;
488 [label="X[2] <= 155.5\ngini = 0.51\nsamples = 139\nvalue = [92, 8, 29, 10]"] ;
432 -> 488 ;
489 [label="X[1] <= 24.5\ngini = 0.632\nsamples = 19\nvalue = [8, 1, 8, 2]"] ;
488 -> 489 ;
490 [label="X[1] <= 16.5\ngini = 0.54\nsamples = 10\nvalue = [6, 1, 3, 0]"] ;
489 -> 490 ;
491 [label="gini = 0.0\nsamples = 1\nvalue = [0, 0, 1, 0]"] ;
490 -> 491 ;
492 [label="X[3] <= 47.5\ngini = 0.494\nsamples = 9\nvalue = [6, 1, 2, 0]"] ;
490 -> 492 ;
493 [label="gini = 0.5\nsamples = 2\nvalue = [1, 1, 0, 0]"] ;
492 -> 493 ;
494 [label="X[1] <= 18.5\ngini = 0.408\nsamples = 7\nvalue = [5, 0, 2, 0]"] ;
492 -> 494 ;
495 [label="gini = 0.48\nsamples = 5\nvalue = [3, 0, 2, 0]"] ;
494 -> 495 ;
496 [label="gini = 0.0\nsamples = 2\nvalue = [2, 0, 0, 0]"] ;
494 -> 496 ;
497 [label="X[5] <= 21.5\ngini = 0.593\nsamples = 9\nvalue = [2, 0, 5, 2]"] ;
489 -> 497 ;
498 [label="X[2] <= 154.5\ngini = 0.444\nsamples = 6\nvalue = [0, 0, 4, 2]"] ;
497 -> 498 ;
499 [label="gini = 0.5\nsamples = 2\nvalue = [0, 0, 1, 1]"] ;
498 -> 499 ;
500 [label="X[1] <= 28.0\ngini = 0.375\nsamples = 4\nvalue = [0, 0, 3, 1]"] ;
498 -> 500 ;
501 [label="gini = 0.5\nsamples = 2\nvalue = [0, 0, 1, 1]"] ;
500 -> 501 ;
502 [label="gini = 0.0\nsamples = 2\nvalue = [0, 0, 2, 0]"] ;
500 -> 502 ;
503 [label="X[1] <= 28.0\ngini = 0.444\nsamples = 3\nvalue = [2, 0, 1, 0]"] ;
497 -> 503 ;
504 [label="X[2] <= 152.5\ngini = 0.5\nsamples = 2\nvalue = [1, 0, 1, 0]"] ;
503 -> 504 ;
505 [label="gini = 0.0\nsamples = 1\nvalue = [0, 0, 1, 0]"] ;
504 -> 505 ;
506 [label="gini = 0.0\nsamples = 1\nvalue = [1, 0, 0, 0]"] ;
504 -> 506 ;
507 [label="gini = 0.0\nsamples = 1\nvalue = [1, 0, 0, 0]"] ;
503 -> 507 ;
508 [label="X[2] <= 160.5\ngini = 0.472\nsamples = 120\nvalue = [84, 7, 21, 8]"] ;
488 -> 508 ;
509 [label="X[1] <= 30.5\ngini = 0.266\nsamples = 40\nvalue = [34, 0, 3, 3]"] ;
508 -> 509 ;
510 [label="X[3] <= 54.5\ngini = 0.213\nsamples = 34\nvalue = [30, 0, 1, 3]"] ;
509 -> 510 ;
511 [label="X[3] <= 52.5\ngini = 0.278\nsamples = 25\nvalue = [21, 0, 1, 3]"] ;
510 -> 511 ;
512 [label="X[2] <= 159.0\ngini = 0.226\nsamples = 24\nvalue = [21, 0, 1, 2]"] ;
511 -> 512 ;
513 [label="X[3] <= 47.5\ngini = 0.177\nsamples = 21\nvalue = [19, 0, 1, 1]"] ;
512 -> 513 ;
514 [label="gini = 0.278\nsamples = 6\nvalue = [5, 0, 0, 1]"] ;
513 -> 514 ;
515 [label="X[2] <= 157.5\ngini = 0.124\nsamples = 15\nvalue = [14, 0, 1, 0]"] ;
513 -> 515 ;
516 [label="gini = 0.0\nsamples = 7\nvalue = [7, 0, 0, 0]"] ;
515 -> 516 ;
517 [label="X[1] <= 18.0\ngini = 0.219\nsamples = 8\nvalue = [7, 0, 1, 0]"] ;
515 -> 517 ;
518 [label="gini = 0.0\nsamples = 5\nvalue = [5, 0, 0, 0]"] ;
517 -> 518 ;
519 [label="gini = 0.444\nsamples = 3\nvalue = [2, 0, 1, 0]"] ;
517 -> 519 ;
520 [label="X[1] <= 25.5\ngini = 0.444\nsamples = 3\nvalue = [2, 0, 0, 1]"] ;
512 -> 520 ;
521 [label="gini = 0.0\nsamples = 2\nvalue = [2, 0, 0, 0]"] ;
520 -> 521 ;
522 [label="gini = 0.0\nsamples = 1\nvalue = [0, 0, 0, 1]"] ;
520 -> 522 ;
523 [label="gini = 0.0\nsamples = 1\nvalue = [0, 0, 0, 1]"] ;
511 -> 523 ;
524 [label="gini = 0.0\nsamples = 9\nvalue = [9, 0, 0, 0]"] ;
510 -> 524 ;
525 [label="X[3] <= 53.0\ngini = 0.444\nsamples = 6\nvalue = [4, 0, 2, 0]"] ;
509 -> 525 ;
526 [label="gini = 0.0\nsamples = 2\nvalue = [2, 0, 0, 0]"] ;
525 -> 526 ;
527 [label="X[3] <= 57.0\ngini = 0.5\nsamples = 4\nvalue = [2, 0, 2, 0]"] ;
525 -> 527 ;
528 [label="gini = 0.5\nsamples = 2\nvalue = [1, 0, 1, 0]"] ;
527 -> 528 ;
529 [label="gini = 0.5\nsamples = 2\nvalue = [1, 0, 1, 0]"] ;
527 -> 529 ;
530 [label="X[1] <= 23.5\ngini = 0.547\nsamples = 80\nvalue = [50, 7, 18, 5]"] ;
508 -> 530 ;
531 [label="X[2] <= 162.5\ngini = 0.632\nsamples = 44\nvalue = [22, 4, 14, 4]"] ;
530 -> 531 ;
532 [label="X[3] <= 48.5\ngini = 0.694\nsamples = 22\nvalue = [8, 2, 8, 4]"] ;
531 -> 532 ;
533 [label="X[2] <= 161.5\ngini = 0.729\nsamples = 15\nvalue = [4, 2, 5, 4]"] ;
532 -> 533 ;
534 [label="X[1] <= 19.0\ngini = 0.56\nsamples = 5\nvalue = [1, 0, 3, 1]"] ;
533 -> 534 ;
535 [label="gini = 0.667\nsamples = 3\nvalue = [1, 0, 1, 1]"] ;
534 -> 535 ;
536 [label="gini = 0.0\nsamples = 2\nvalue = [0, 0, 2, 0]"] ;
534 -> 536 ;
537 [label="X[1] <= 19.0\ngini = 0.74\nsamples = 10\nvalue = [3, 2, 2, 3]"] ;
533 -> 537 ;
538 [label="gini = 0.72\nsamples = 5\nvalue = [1, 1, 1, 2]"] ;
537 -> 538 ;
539 [label="gini = 0.72\nsamples = 5\nvalue = [2, 1, 1, 1]"] ;
537 -> 539 ;
540 [label="X[3] <= 49.5\ngini = 0.49\nsamples = 7\nvalue = [4, 0, 3, 0]"] ;
532 -> 540 ;
541 [label="gini = 0.0\nsamples = 1\nvalue = [1, 0, 0, 0]"] ;
540 -> 541 ;
542 [label="X[3] <= 55.0\ngini = 0.5\nsamples = 6\nvalue = [3, 0, 3, 0]"] ;
540 -> 542 ;
543 [label="gini = 0.0\nsamples = 1\nvalue = [0, 0, 1, 0]"] ;
542 -> 543 ;
544 [label="X[1] <= 21.0\ngini = 0.48\nsamples = 5\nvalue = [3, 0, 2, 0]"] ;
542 -> 544 ;
545 [label="gini = 0.5\nsamples = 2\nvalue = [1, 0, 1, 0]"] ;
544 -> 545 ;
546 [label="gini = 0.444\nsamples = 3\nvalue = [2, 0, 1, 0]"] ;
544 -> 546 ;
547 [label="X[1] <= 22.0\ngini = 0.512\nsamples = 22\nvalue = [14, 2, 6, 0]"] ;
531 -> 547 ;
548 [label="X[5] <= 19.0\ngini = 0.49\nsamples = 21\nvalue = [14, 2, 5, 0]"] ;
547 -> 548 ;
549 [label="X[3] <= 56.5\ngini = 0.537\nsamples = 18\nvalue = [11, 2, 5, 0]"] ;
548 -> 549 ;
550 [label="X[3] <= 50.0\ngini = 0.544\nsamples = 13\nvalue = [8, 2, 3, 0]"] ;
549 -> 550 ;
551 [label="X[1] <= 19.0\ngini = 0.569\nsamples = 12\nvalue = [7, 2, 3, 0]"] ;
550 -> 551 ;
552 [label="gini = 0.5\nsamples = 6\nvalue = [4, 1, 1, 0]"] ;
551 -> 552 ;
553 [label="gini = 0.611\nsamples = 6\nvalue = [3, 1, 2, 0]"] ;
551 -> 553 ;
554 [label="gini = 0.0\nsamples = 1\nvalue = [1, 0, 0, 0]"] ;
550 -> 554 ;
555 [label="X[3] <= 62.0\ngini = 0.48\nsamples = 5\nvalue = [3, 0, 2, 0]"] ;
549 -> 555 ;
556 [label="gini = 0.5\nsamples = 2\nvalue = [1, 0, 1, 0]"] ;
555 -> 556 ;
557 [label="gini = 0.444\nsamples = 3\nvalue = [2, 0, 1, 0]"] ;
555 -> 557 ;
558 [label="gini = 0.0\nsamples = 3\nvalue = [3, 0, 0, 0]"] ;
548 -> 558 ;
559 [label="gini = 0.0\nsamples = 1\nvalue = [0, 0, 1, 0]"] ;
547 -> 559 ;
560 [label="X[3] <= 56.5\ngini = 0.375\nsamples = 36\nvalue = [28, 3, 4, 1]"] ;
530 -> 560 ;
561 [label="X[1] <= 29.5\ngini = 0.492\nsamples = 22\nvalue = [15, 2, 4, 1]"] ;
560 -> 561 ;
562 [label="X[3] <= 49.5\ngini = 0.328\nsamples = 16\nvalue = [13, 1, 1, 1]"] ;
561 -> 562 ;
563 [label="X[3] <= 48.0\ngini = 0.562\nsamples = 8\nvalue = [5, 1, 1, 1]"] ;
562 -> 563 ;
564 [label="gini = 0.5\nsamples = 6\nvalue = [4, 0, 1, 1]"] ;
563 -> 564 ;
565 [label="gini = 0.5\nsamples = 2\nvalue = [1, 1, 0, 0]"] ;
563 -> 565 ;
566 [label="gini = 0.0\nsamples = 8\nvalue = [8, 0, 0, 0]"] ;
562 -> 566 ;
567 [label="X[5] <= 17.0\ngini = 0.611\nsamples = 6\nvalue = [2, 1, 3, 0]"] ;
561 -> 567 ;
568 [label="X[1] <= 33.0\ngini = 0.625\nsamples = 4\nvalue = [1, 1, 2, 0]"] ;
567 -> 568 ;
569 [label="gini = 0.5\nsamples = 2\nvalue = [0, 1, 1, 0]"] ;
568 -> 569 ;
570 [label="gini = 0.5\nsamples = 2\nvalue = [1, 0, 1, 0]"] ;
568 -> 570 ;
571 [label="gini = 0.5\nsamples = 2\nvalue = [1, 0, 1, 0]"] ;
567 -> 571 ;
572 [label="X[1] <= 27.5\ngini = 0.133\nsamples = 14\nvalue = [13, 1, 0, 0]"] ;
560 -> 572 ;
573 [label="X[1] <= 26.5\ngini = 0.444\nsamples = 3\nvalue = [2, 1, 0, 0]"] ;
572 -> 573 ;
574 [label="gini = 0.0\nsamples = 2\nvalue = [2, 0, 0, 0]"] ;
573 -> 574 ;
575 [label="gini = 0.0\nsamples = 1\nvalue = [0, 1, 0, 0]"] ;
573 -> 575 ;
576 [label="gini = 0.0\nsamples = 11\nvalue = [11, 0, 0, 0]"] ;
572 -> 576 ;
577 [label="gini = 0.0\nsamples = 15\nvalue = [15, 0, 0, 0]"] ;
431 -> 577 ;
578 [label="X[1] <= 26.5\ngini = 0.265\nsamples = 68\nvalue = [58, 3, 3, 4]"] ;
430 -> 578 ;
579 [label="X[2] <= 168.5\ngini = 0.059\nsamples = 33\nvalue = [32, 0, 1, 0]"] ;
578 -> 579 ;
580 [label="gini = 0.0\nsamples = 25\nvalue = [25, 0, 0, 0]"] ;
579 -> 580 ;
581 [label="X[1] <= 21.5\ngini = 0.219\nsamples = 8\nvalue = [7, 0, 1, 0]"] ;
579 -> 581 ;
582 [label="gini = 0.5\nsamples = 2\nvalue = [1, 0, 1, 0]"] ;
581 -> 582 ;
583 [label="gini = 0.0\nsamples = 6\nvalue = [6, 0, 0, 0]"] ;
581 -> 583 ;
584 [label="X[3] <= 56.5\ngini = 0.424\nsamples = 35\nvalue = [26, 3, 2, 4]"] ;
578 -> 584 ;
585 [label="X[2] <= 168.5\ngini = 0.444\nsamples = 6\nvalue = [4, 2, 0, 0]"] ;
584 -> 585 ;
586 [label="X[3] <= 53.5\ngini = 0.32\nsamples = 5\nvalue = [4, 1, 0, 0]"] ;
585 -> 586 ;
587 [label="gini = 0.5\nsamples = 2\nvalue = [1, 1, 0, 0]"] ;
586 -> 587 ;
588 [label="gini = 0.0\nsamples = 3\nvalue = [3, 0, 0, 0]"] ;
586 -> 588 ;
589 [label="gini = 0.0\nsamples = 1\nvalue = [0, 1, 0, 0]"] ;
585 -> 589 ;
590 [label="X[3] <= 74.5\ngini = 0.4\nsamples = 29\nvalue = [22, 1, 2, 4]"] ;
584 -> 590 ;
591 [label="X[5] <= 15.0\ngini = 0.37\nsamples = 27\nvalue = [21, 1, 1, 4]"] ;
590 -> 591 ;
592 [label="X[3] <= 61.0\ngini = 0.245\nsamples = 7\nvalue = [6, 0, 1, 0]"] ;
591 -> 592 ;
593 [label="X[1] <= 41.0\ngini = 0.375\nsamples = 4\nvalue = [3, 0, 1, 0]"] ;
592 -> 593 ;
594 [label="X[1] <= 37.0\ngini = 0.5\nsamples = 2\nvalue = [1, 0, 1, 0]"] ;
593 -> 594 ;
595 [label="gini = 0.0\nsamples = 1\nvalue = [1, 0, 0, 0]"] ;
594 -> 595 ;
596 [label="gini = 0.0\nsamples = 1\nvalue = [0, 0, 1, 0]"] ;
594 -> 596 ;
597 [label="gini = 0.0\nsamples = 2\nvalue = [2, 0, 0, 0]"] ;
593 -> 597 ;
598 [label="gini = 0.0\nsamples = 3\nvalue = [3, 0, 0, 0]"] ;
592 -> 598 ;
599 [label="X[2] <= 168.5\ngini = 0.395\nsamples = 20\nvalue = [15, 1, 0, 4]"] ;
591 -> 599 ;
600 [label="X[1] <= 30.5\ngini = 0.443\nsamples = 17\nvalue = [12, 1, 0, 4]"] ;
599 -> 600 ;
601 [label="X[1] <= 28.5\ngini = 0.245\nsamples = 7\nvalue = [6, 0, 0, 1]"] ;
600 -> 601 ;
602 [label="X[5] <= 17.5\ngini = 0.444\nsamples = 3\nvalue = [2, 0, 0, 1]"] ;
601 -> 602 ;
603 [label="gini = 0.0\nsamples = 1\nvalue = [0, 0, 0, 1]"] ;
602 -> 603 ;
604 [label="gini = 0.0\nsamples = 2\nvalue = [2, 0, 0, 0]"] ;
602 -> 604 ;
605 [label="gini = 0.0\nsamples = 4\nvalue = [4, 0, 0, 0]"] ;
601 -> 605 ;
606 [label="X[1] <= 33.0\ngini = 0.54\nsamples = 10\nvalue = [6, 1, 0, 3]"] ;
600 -> 606 ;
607 [label="X[3] <= 61.0\ngini = 0.5\nsamples = 4\nvalue = [2, 0, 0, 2]"] ;
606 -> 607 ;
608 [label="gini = 0.444\nsamples = 3\nvalue = [2, 0, 0, 1]"] ;
607 -> 608 ;
609 [label="gini = 0.0\nsamples = 1\nvalue = [0, 0, 0, 1]"] ;
607 -> 609 ;
610 [label="X[5] <= 17.5\ngini = 0.5\nsamples = 6\nvalue = [4, 1, 0, 1]"] ;
606 -> 610 ;
611 [label="gini = 0.0\nsamples = 1\nvalue = [1, 0, 0, 0]"] ;
610 -> 611 ;
612 [label="X[1] <= 37.0\ngini = 0.56\nsamples = 5\nvalue = [3, 1, 0, 1]"] ;
610 -> 612 ;
613 [label="gini = 0.625\nsamples = 4\nvalue = [2, 1, 0, 1]"] ;
612 -> 613 ;
614 [label="gini = 0.0\nsamples = 1\nvalue = [1, 0, 0, 0]"] ;
612 -> 614 ;
615 [label="gini = 0.0\nsamples = 3\nvalue = [3, 0, 0, 0]"] ;
599 -> 615 ;
616 [label="gini = 0.5\nsamples = 2\nvalue = [1, 0, 1, 0]"] ;
590 -> 616 ;
617 [label="X[5] <= 16.5\ngini = 0.483\nsamples = 148\nvalue = [103, 17, 10, 18]"] ;
429 -> 617 ;
618 [label="X[5] <= 15.0\ngini = 0.536\nsamples = 84\nvalue = [54, 16, 8, 6]"] ;
617 -> 618 ;
619 [label="X[2] <= 177.5\ngini = 0.26\nsamples = 13\nvalue = [11, 0, 2, 0]"] ;
618 -> 619 ;
620 [label="X[1] <= 25.0\ngini = 0.153\nsamples = 12\nvalue = [11, 0, 1, 0]"] ;
619 -> 620 ;
621 [label="X[2] <= 173.5\ngini = 0.375\nsamples = 4\nvalue = [3, 0, 1, 0]"] ;
620 -> 621 ;
622 [label="gini = 0.0\nsamples = 2\nvalue = [2, 0, 0, 0]"] ;
621 -> 622 ;
623 [label="gini = 0.5\nsamples = 2\nvalue = [1, 0, 1, 0]"] ;
621 -> 623 ;
624 [label="gini = 0.0\nsamples = 8\nvalue = [8, 0, 0, 0]"] ;
620 -> 624 ;
625 [label="gini = 0.0\nsamples = 1\nvalue = [0, 0, 1, 0]"] ;
619 -> 625 ;
626 [label="X[3] <= 61.5\ngini = 0.568\nsamples = 71\nvalue = [43, 16, 6, 6]"] ;
618 -> 626 ;
627 [label="X[1] <= 23.5\ngini = 0.645\nsamples = 11\nvalue = [4, 5, 1, 1]"] ;
626 -> 627 ;
628 [label="X[3] <= 60.0\ngini = 0.625\nsamples = 4\nvalue = [2, 0, 1, 1]"] ;
627 -> 628 ;
629 [label="gini = 0.5\nsamples = 2\nvalue = [1, 0, 0, 1]"] ;
628 -> 629 ;
630 [label="gini = 0.5\nsamples = 2\nvalue = [1, 0, 1, 0]"] ;
628 -> 630 ;
631 [label="X[1] <= 25.5\ngini = 0.408\nsamples = 7\nvalue = [2, 5, 0, 0]"] ;
627 -> 631 ;
632 [label="gini = 0.5\nsamples = 2\nvalue = [1, 1, 0, 0]"] ;
631 -> 632 ;
633 [label="X[1] <= 30.0\ngini = 0.32\nsamples = 5\nvalue = [1, 4, 0, 0]"] ;
631 -> 633 ;
634 [label="gini = 0.0\nsamples = 3\nvalue = [0, 3, 0, 0]"] ;
633 -> 634 ;
635 [label="gini = 0.5\nsamples = 2\nvalue = [1, 1, 0, 0]"] ;
633 -> 635 ;
636 [label="X[1] <= 22.5\ngini = 0.53\nsamples = 60\nvalue = [39, 11, 5, 5]"] ;
626 -> 636 ;
637 [label="X[1] <= 21.0\ngini = 0.5\nsamples = 10\nvalue = [5, 5, 0, 0]"] ;
636 -> 637 ;
638 [label="X[2] <= 175.0\ngini = 0.375\nsamples = 4\nvalue = [3, 1, 0, 0]"] ;
637 -> 638 ;
639 [label="gini = 0.5\nsamples = 2\nvalue = [1, 1, 0, 0]"] ;
638 -> 639 ;
640 [label="gini = 0.0\nsamples = 2\nvalue = [2, 0, 0, 0]"] ;
638 -> 640 ;
641 [label="X[3] <= 63.5\ngini = 0.444\nsamples = 6\nvalue = [2, 4, 0, 0]"] ;
637 -> 641 ;
642 [label="gini = 0.5\nsamples = 2\nvalue = [1, 1, 0, 0]"] ;
641 -> 642 ;
643 [label="X[2] <= 175.5\ngini = 0.375\nsamples = 4\nvalue = [1, 3, 0, 0]"] ;
641 -> 643 ;
644 [label="gini = 0.0\nsamples = 2\nvalue = [0, 2, 0, 0]"] ;
643 -> 644 ;
645 [label="gini = 0.5\nsamples = 2\nvalue = [1, 1, 0, 0]"] ;
643 -> 645 ;
646 [label="X[3] <= 74.5\ngini = 0.503\nsamples = 50\nvalue = [34, 6, 5, 5]"] ;
636 -> 646 ;
647 [label="X[1] <= 32.5\ngini = 0.486\nsamples = 49\nvalue = [34, 6, 4, 5]"] ;
646 -> 647 ;
648 [label="X[2] <= 176.5\ngini = 0.432\nsamples = 42\nvalue = [31, 4, 4, 3]"] ;
647 -> 648 ;
649 [label="X[1] <= 24.5\ngini = 0.507\nsamples = 34\nvalue = [23, 4, 4, 3]"] ;
648 -> 649 ;
650 [label="X[3] <= 69.0\ngini = 0.54\nsamples = 10\nvalue = [6, 3, 1, 0]"] ;
649 -> 650 ;
651 [label="X[3] <= 63.0\ngini = 0.594\nsamples = 8\nvalue = [4, 3, 1, 0]"] ;
650 -> 651 ;
652 [label="gini = 0.5\nsamples = 4\nvalue = [2, 2, 0, 0]"] ;
651 -> 652 ;
653 [label="X[3] <= 66.0\ngini = 0.625\nsamples = 4\nvalue = [2, 1, 1, 0]"] ;
651 -> 653 ;
654 [label="gini = 0.5\nsamples = 2\nvalue = [1, 0, 1, 0]"] ;
653 -> 654 ;
655 [label="gini = 0.5\nsamples = 2\nvalue = [1, 1, 0, 0]"] ;
653 -> 655 ;
656 [label="gini = 0.0\nsamples = 2\nvalue = [2, 0, 0, 0]"] ;
650 -> 656 ;
657 [label="X[3] <= 69.0\ngini = 0.465\nsamples = 24\nvalue = [17, 1, 3, 3]"] ;
649 -> 657 ;
658 [label="X[1] <= 27.5\ngini = 0.364\nsamples = 18\nvalue = [14, 0, 1, 3]"] ;
657 -> 658 ;
659 [label="X[3] <= 63.5\ngini = 0.571\nsamples = 7\nvalue = [4, 0, 1, 2]"] ;
658 -> 659 ;
660 [label="X[1] <= 25.5\ngini = 0.444\nsamples = 3\nvalue = [2, 0, 1, 0]"] ;
659 -> 660 ;
661 [label="gini = 0.0\nsamples = 1\nvalue = [1, 0, 0, 0]"] ;
660 -> 661 ;
662 [label="gini = 0.5\nsamples = 2\nvalue = [1, 0, 1, 0]"] ;
660 -> 662 ;
663 [label="X[2] <= 173.0\ngini = 0.5\nsamples = 4\nvalue = [2, 0, 0, 2]"] ;
659 -> 663 ;
664 [label="gini = 0.5\nsamples = 2\nvalue = [1, 0, 0, 1]"] ;
663 -> 664 ;
665 [label="gini = 0.5\nsamples = 2\nvalue = [1, 0, 0, 1]"] ;
663 -> 665 ;
666 [label="X[3] <= 62.5\ngini = 0.165\nsamples = 11\nvalue = [10, 0, 0, 1]"] ;
658 -> 666 ;
667 [label="X[2] <= 174.5\ngini = 0.375\nsamples = 4\nvalue = [3, 0, 0, 1]"] ;
666 -> 667 ;
668 [label="gini = 0.0\nsamples = 2\nvalue = [2, 0, 0, 0]"] ;
667 -> 668 ;
669 [label="gini = 0.5\nsamples = 2\nvalue = [1, 0, 0, 1]"] ;
667 -> 669 ;
670 [label="gini = 0.0\nsamples = 7\nvalue = [7, 0, 0, 0]"] ;
666 -> 670 ;
671 [label="X[3] <= 71.5\ngini = 0.611\nsamples = 6\nvalue = [3, 1, 2, 0]"] ;
657 -> 671 ;
672 [label="X[1] <= 29.0\ngini = 0.444\nsamples = 3\nvalue = [0, 1, 2, 0]"] ;
671 -> 672 ;
673 [label="gini = 0.0\nsamples = 1\nvalue = [0, 0, 1, 0]"] ;
672 -> 673 ;
674 [label="gini = 0.5\nsamples = 2\nvalue = [0, 1, 1, 0]"] ;
672 -> 674 ;
675 [label="gini = 0.0\nsamples = 3\nvalue = [3, 0, 0, 0]"] ;
671 -> 675 ;
676 [label="gini = 0.0\nsamples = 8\nvalue = [8, 0, 0, 0]"] ;
648 -> 676 ;
677 [label="X[2] <= 178.5\ngini = 0.653\nsamples = 7\nvalue = [3, 2, 0, 2]"] ;
647 -> 677 ;
678 [label="X[1] <= 34.5\ngini = 0.611\nsamples = 6\nvalue = [3, 1, 0, 2]"] ;
677 -> 678 ;
679 [label="gini = 0.5\nsamples = 2\nvalue = [1, 0, 0, 1]"] ;
678 -> 679 ;
680 [label="X[2] <= 174.5\ngini = 0.625\nsamples = 4\nvalue = [2, 1, 0, 1]"] ;
678 -> 680 ;
681 [label="gini = 0.5\nsamples = 2\nvalue = [1, 0, 0, 1]"] ;
680 -> 681 ;
682 [label="gini = 0.5\nsamples = 2\nvalue = [1, 1, 0, 0]"] ;
680 -> 682 ;
683 [label="gini = 0.0\nsamples = 1\nvalue = [0, 1, 0, 0]"] ;
677 -> 683 ;
684 [label="gini = 0.0\nsamples = 1\nvalue = [0, 0, 1, 0]"] ;
646 -> 684 ;
685 [label="X[5] <= 17.5\ngini = 0.377\nsamples = 64\nvalue = [49, 1, 2, 12]"] ;
617 -> 685 ;
686 [label="X[2] <= 177.0\ngini = 0.463\nsamples = 22\nvalue = [14, 0, 0, 8]"] ;
685 -> 686 ;
687 [label="X[1] <= 30.5\ngini = 0.198\nsamples = 9\nvalue = [8, 0, 0, 1]"] ;
686 -> 687 ;
688 [label="gini = 0.0\nsamples = 5\nvalue = [5, 0, 0, 0]"] ;
687 -> 688 ;
689 [label="X[3] <= 61.5\ngini = 0.375\nsamples = 4\nvalue = [3, 0, 0, 1]"] ;
687 -> 689 ;
690 [label="gini = 0.0\nsamples = 2\nvalue = [2, 0, 0, 0]"] ;
689 -> 690 ;
691 [label="X[3] <= 65.0\ngini = 0.5\nsamples = 2\nvalue = [1, 0, 0, 1]"] ;
689 -> 691 ;
692 [label="gini = 0.0\nsamples = 1\nvalue = [0, 0, 0, 1]"] ;
691 -> 692 ;
693 [label="gini = 0.0\nsamples = 1\nvalue = [1, 0, 0, 0]"] ;
691 -> 693 ;
694 [label="X[3] <= 73.5\ngini = 0.497\nsamples = 13\nvalue = [6, 0, 0, 7]"] ;
686 -> 694 ;
695 [label="X[1] <= 25.5\ngini = 0.463\nsamples = 11\nvalue = [4, 0, 0, 7]"] ;
694 -> 695 ;
696 [label="gini = 0.0\nsamples = 3\nvalue = [0, 0, 0, 3]"] ;
695 -> 696 ;
697 [label="X[3] <= 65.0\ngini = 0.5\nsamples = 8\nvalue = [4, 0, 0, 4]"] ;
695 -> 697 ;
698 [label="gini = 0.0\nsamples = 2\nvalue = [0, 0, 0, 2]"] ;
697 -> 698 ;
699 [label="X[3] <= 71.5\ngini = 0.444\nsamples = 6\nvalue = [4, 0, 0, 2]"] ;
697 -> 699 ;
700 [label="X[3] <= 68.5\ngini = 0.32\nsamples = 5\nvalue = [4, 0, 0, 1]"] ;
699 -> 700 ;
701 [label="X[1] <= 30.0\ngini = 0.5\nsamples = 2\nvalue = [1, 0, 0, 1]"] ;
700 -> 701 ;
702 [label="gini = 0.0\nsamples = 1\nvalue = [0, 0, 0, 1]"] ;
701 -> 702 ;
703 [label="gini = 0.0\nsamples = 1\nvalue = [1, 0, 0, 0]"] ;
701 -> 703 ;
704 [label="gini = 0.0\nsamples = 3\nvalue = [3, 0, 0, 0]"] ;
700 -> 704 ;
705 [label="gini = 0.0\nsamples = 1\nvalue = [0, 0, 0, 1]"] ;
699 -> 705 ;
706 [label="gini = 0.0\nsamples = 2\nvalue = [2, 0, 0, 0]"] ;
694 -> 706 ;
707 [label="X[1] <= 31.5\ngini = 0.294\nsamples = 42\nvalue = [35, 1, 2, 4]"] ;
685 -> 707 ;
708 [label="X[3] <= 108.75\ngini = 0.2\nsamples = 37\nvalue = [33, 1, 1, 2]"] ;
707 -> 708 ;
709 [label="X[1] <= 20.0\ngini = 0.157\nsamples = 36\nvalue = [33, 1, 1, 1]"] ;
708 -> 709 ;
710 [label="X[3] <= 63.0\ngini = 0.5\nsamples = 2\nvalue = [1, 0, 0, 1]"] ;
709 -> 710 ;
711 [label="gini = 0.0\nsamples = 1\nvalue = [0, 0, 0, 1]"] ;
710 -> 711 ;
712 [label="gini = 0.0\nsamples = 1\nvalue = [1, 0, 0, 0]"] ;
710 -> 712 ;
713 [label="X[1] <= 22.5\ngini = 0.112\nsamples = 34\nvalue = [32, 1, 1, 0]"] ;
709 -> 713 ;
714 [label="X[2] <= 177.0\ngini = 0.219\nsamples = 8\nvalue = [7, 1, 0, 0]"] ;
713 -> 714 ;
715 [label="gini = 0.0\nsamples = 5\nvalue = [5, 0, 0, 0]"] ;
714 -> 715 ;
716 [label="X[3] <= 71.5\ngini = 0.444\nsamples = 3\nvalue = [2, 1, 0, 0]"] ;
714 -> 716 ;
717 [label="gini = 0.5\nsamples = 2\nvalue = [1, 1, 0, 0]"] ;
716 -> 717 ;
718 [label="gini = 0.0\nsamples = 1\nvalue = [1, 0, 0, 0]"] ;
716 -> 718 ;
719 [label="X[3] <= 64.0\ngini = 0.074\nsamples = 26\nvalue = [25, 0, 1, 0]"] ;
713 -> 719 ;
720 [label="X[5] <= 21.0\ngini = 0.219\nsamples = 8\nvalue = [7, 0, 1, 0]"] ;
719 -> 720 ;
721 [label="gini = 0.0\nsamples = 6\nvalue = [6, 0, 0, 0]"] ;
720 -> 721 ;
722 [label="gini = 0.5\nsamples = 2\nvalue = [1, 0, 1, 0]"] ;
720 -> 722 ;
723 [label="gini = 0.0\nsamples = 18\nvalue = [18, 0, 0, 0]"] ;
719 -> 723 ;
724 [label="gini = 0.0\nsamples = 1\nvalue = [0, 0, 0, 1]"] ;
708 -> 724 ;
725 [label="X[1] <= 34.0\ngini = 0.64\nsamples = 5\nvalue = [2, 0, 1, 2]"] ;
707 -> 725 ;
726 [label="X[5] <= 20.5\ngini = 0.444\nsamples = 3\nvalue = [1, 0, 0, 2]"] ;
725 -> 726 ;
727 [label="gini = 0.0\nsamples = 2\nvalue = [0, 0, 0, 2]"] ;
726 -> 727 ;
728 [label="gini = 0.0\nsamples = 1\nvalue = [1, 0, 0, 0]"] ;
726 -> 728 ;
729 [label="gini = 0.5\nsamples = 2\nvalue = [1, 0, 1, 0]"] ;
725 -> 729 ;
730 [label="X[2] <= 189.5\ngini = 0.543\nsamples = 67\nvalue = [42, 1, 12, 12]"] ;
10 -> 730 ;
731 [label="X[1] <= 29.5\ngini = 0.649\nsamples = 21\nvalue = [8, 1, 3, 9]"] ;
730 -> 731 ;
732 [label="X[3] <= 78.5\ngini = 0.648\nsamples = 19\nvalue = [6, 1, 3, 9]"] ;
731 -> 732 ;
733 [label="X[5] <= 13.5\ngini = 0.551\nsamples = 15\nvalue = [4, 0, 2, 9]"] ;
732 -> 733 ;
734 [label="X[3] <= 69.0\ngini = 0.656\nsamples = 8\nvalue = [3, 0, 2, 3]"] ;
733 -> 734 ;
735 [label="X[2] <= 188.0\ngini = 0.375\nsamples = 4\nvalue = [1, 0, 0, 3]"] ;
734 -> 735 ;
736 [label="X[1] <= 24.0\ngini = 0.5\nsamples = 2\nvalue = [1, 0, 0, 1]"] ;
735 -> 736 ;
737 [label="gini = 0.0\nsamples = 1\nvalue = [1, 0, 0, 0]"] ;
736 -> 737 ;
738 [label="gini = 0.0\nsamples = 1\nvalue = [0, 0, 0, 1]"] ;
736 -> 738 ;
739 [label="gini = 0.0\nsamples = 2\nvalue = [0, 0, 0, 2]"] ;
735 -> 739 ;
740 [label="X[2] <= 187.5\ngini = 0.5\nsamples = 4\nvalue = [2, 0, 2, 0]"] ;
734 -> 740 ;
741 [label="gini = 0.0\nsamples = 1\nvalue = [1, 0, 0, 0]"] ;
740 -> 741 ;
742 [label="X[1] <= 24.0\ngini = 0.444\nsamples = 3\nvalue = [1, 0, 2, 0]"] ;
740 -> 742 ;
743 [label="gini = 0.0\nsamples = 1\nvalue = [1, 0, 0, 0]"] ;
742 -> 743 ;
744 [label="gini = 0.0\nsamples = 2\nvalue = [0, 0, 2, 0]"] ;
742 -> 744 ;
745 [label="X[1] <= 21.5\ngini = 0.245\nsamples = 7\nvalue = [1, 0, 0, 6]"] ;
733 -> 745 ;
746 [label="gini = 0.0\nsamples = 1\nvalue = [1, 0, 0, 0]"] ;
745 -> 746 ;
747 [label="gini = 0.0\nsamples = 6\nvalue = [0, 0, 0, 6]"] ;
745 -> 747 ;
748 [label="X[5] <= 4.0\ngini = 0.625\nsamples = 4\nvalue = [2, 1, 1, 0]"] ;
732 -> 748 ;
749 [label="gini = 0.0\nsamples = 1\nvalue = [0, 0, 1, 0]"] ;
748 -> 749 ;
750 [label="X[3] <= 79.5\ngini = 0.444\nsamples = 3\nvalue = [2, 1, 0, 0]"] ;
748 -> 750 ;
751 [label="gini = 0.0\nsamples = 1\nvalue = [1, 0, 0, 0]"] ;
750 -> 751 ;
752 [label="X[1] <= 25.0\ngini = 0.5\nsamples = 2\nvalue = [1, 1, 0, 0]"] ;
750 -> 752 ;
753 [label="gini = 0.0\nsamples = 1\nvalue = [1, 0, 0, 0]"] ;
752 -> 753 ;
754 [label="gini = 0.0\nsamples = 1\nvalue = [0, 1, 0, 0]"] ;
752 -> 754 ;
755 [label="gini = 0.0\nsamples = 2\nvalue = [2, 0, 0, 0]"] ;
731 -> 755 ;
756 [label="X[1] <= 24.5\ngini = 0.411\nsamples = 46\nvalue = [34, 0, 9, 3]"] ;
730 -> 756 ;
757 [label="X[5] <= 13.5\ngini = 0.185\nsamples = 20\nvalue = [18, 0, 1, 1]"] ;
756 -> 757 ;
758 [label="X[3] <= 74.5\ngini = 0.117\nsamples = 16\nvalue = [15, 0, 1, 0]"] ;
757 -> 758 ;
759 [label="X[1] <= 22.5\ngini = 0.219\nsamples = 8\nvalue = [7, 0, 1, 0]"] ;
758 -> 759 ;
760 [label="X[1] <= 21.0\ngini = 0.444\nsamples = 3\nvalue = [2, 0, 1, 0]"] ;
759 -> 760 ;
761 [label="gini = 0.0\nsamples = 2\nvalue = [2, 0, 0, 0]"] ;
760 -> 761 ;
762 [label="gini = 0.0\nsamples = 1\nvalue = [0, 0, 1, 0]"] ;
760 -> 762 ;
763 [label="gini = 0.0\nsamples = 5\nvalue = [5, 0, 0, 0]"] ;
759 -> 763 ;
764 [label="gini = 0.0\nsamples = 8\nvalue = [8, 0, 0, 0]"] ;
758 -> 764 ;
765 [label="X[1] <= 22.5\ngini = 0.375\nsamples = 4\nvalue = [3, 0, 0, 1]"] ;
757 -> 765 ;
766 [label="X[1] <= 19.0\ngini = 0.5\nsamples = 2\nvalue = [1, 0, 0, 1]"] ;
765 -> 766 ;
767 [label="gini = 0.0\nsamples = 1\nvalue = [1, 0, 0, 0]"] ;
766 -> 767 ;
768 [label="gini = 0.0\nsamples = 1\nvalue = [0, 0, 0, 1]"] ;
766 -> 768 ;
769 [label="gini = 0.0\nsamples = 2\nvalue = [2, 0, 0, 0]"] ;
765 -> 769 ;
770 [label="X[3] <= 77.0\ngini = 0.521\nsamples = 26\nvalue = [16, 0, 8, 2]"] ;
756 -> 770 ;
771 [label="X[1] <= 32.5\ngini = 0.5\nsamples = 14\nvalue = [7, 0, 7, 0]"] ;
770 -> 771 ;
772 [label="X[3] <= 71.5\ngini = 0.463\nsamples = 11\nvalue = [4, 0, 7, 0]"] ;
771 -> 772 ;
773 [label="gini = 0.0\nsamples = 2\nvalue = [2, 0, 0, 0]"] ;
772 -> 773 ;
774 [label="X[2] <= 192.5\ngini = 0.346\nsamples = 9\nvalue = [2, 0, 7, 0]"] ;
772 -> 774 ;
775 [label="X[1] <= 29.5\ngini = 0.219\nsamples = 8\nvalue = [1, 0, 7, 0]"] ;
774 -> 775 ;
776 [label="gini = 0.0\nsamples = 6\nvalue = [0, 0, 6, 0]"] ;
775 -> 776 ;
777 [label="X[1] <= 31.0\ngini = 0.5\nsamples = 2\nvalue = [1, 0, 1, 0]"] ;
775 -> 777 ;
778 [label="gini = 0.0\nsamples = 1\nvalue = [1, 0, 0, 0]"] ;
777 -> 778 ;
779 [label="gini = 0.0\nsamples = 1\nvalue = [0, 0, 1, 0]"] ;
777 -> 779 ;
780 [label="gini = 0.0\nsamples = 1\nvalue = [1, 0, 0, 0]"] ;
774 -> 780 ;
781 [label="gini = 0.0\nsamples = 3\nvalue = [3, 0, 0, 0]"] ;
771 -> 781 ;
782 [label="X[1] <= 31.5\ngini = 0.403\nsamples = 12\nvalue = [9, 0, 1, 2]"] ;
770 -> 782 ;
783 [label="X[1] <= 29.5\ngini = 0.18\nsamples = 10\nvalue = [9, 0, 0, 1]"] ;
782 -> 783 ;
784 [label="gini = 0.0\nsamples = 6\nvalue = [6, 0, 0, 0]"] ;
783 -> 784 ;
785 [label="X[3] <= 83.0\ngini = 0.375\nsamples = 4\nvalue = [3, 0, 0, 1]"] ;
783 -> 785 ;
786 [label="X[3] <= 79.0\ngini = 0.5\nsamples = 2\nvalue = [1, 0, 0, 1]"] ;
785 -> 786 ;
787 [label="gini = 0.0\nsamples = 1\nvalue = [1, 0, 0, 0]"] ;
786 -> 787 ;
788 [label="gini = 0.0\nsamples = 1\nvalue = [0, 0, 0, 1]"] ;
786 -> 788 ;
789 [label="gini = 0.0\nsamples = 2\nvalue = [2, 0, 0, 0]"] ;
785 -> 789 ;
790 [label="X[2] <= 191.0\ngini = 0.5\nsamples = 2\nvalue = [0, 0, 1, 1]"] ;
782 -> 790 ;
791 [label="gini = 0.0\nsamples = 1\nvalue = [0, 0, 1, 0]"] ;
790 -> 791 ;
792 [label="gini = 0.0\nsamples = 1\nvalue = [0, 0, 0, 1]"] ;
790 -> 792 ;
793 [label="X[5] <= 3.5\ngini = 0.383\nsamples = 1372\nvalue = [1062, 102, 79, 129]"] ;
9 -> 793 ;
794 [label="X[2] <= 190.5\ngini = 0.171\nsamples = 252\nvalue = [229, 7, 5, 11]"] ;
793 -> 794 ;
795 [label="X[2] <= 163.0\ngini = 0.127\nsamples = 196\nvalue = [183, 3, 4, 6]"] ;
794 -> 795 ;
796 [label="X[1] <= 48.5\ngini = 0.5\nsamples = 2\nvalue = [1, 0, 0, 1]"] ;
795 -> 796 ;
797 [label="gini = 0.0\nsamples = 1\nvalue = [0, 0, 0, 1]"] ;
796 -> 797 ;
798 [label="gini = 0.0\nsamples = 1\nvalue = [1, 0, 0, 0]"] ;
796 -> 798 ;
799 [label="X[3] <= 70.5\ngini = 0.119\nsamples = 194\nvalue = [182, 3, 4, 5]"] ;
795 -> 799 ;
800 [label="X[1] <= 33.5\ngini = 0.224\nsamples = 74\nvalue = [65, 3, 3, 3]"] ;
799 -> 800 ;
801 [label="X[3] <= 62.5\ngini = 0.205\nsamples = 63\nvalue = [56, 3, 3, 1]"] ;
800 -> 801 ;
802 [label="gini = 0.0\nsamples = 17\nvalue = [17, 0, 0, 0]"] ;
801 -> 802 ;
803 [label="X[2] <= 174.5\ngini = 0.272\nsamples = 46\nvalue = [39, 3, 3, 1]"] ;
801 -> 803 ;
804 [label="X[1] <= 25.5\ngini = 0.494\nsamples = 9\nvalue = [6, 0, 2, 1]"] ;
803 -> 804 ;
805 [label="X[1] <= 23.5\ngini = 0.5\nsamples = 4\nvalue = [2, 0, 2, 0]"] ;
804 -> 805 ;
806 [label="gini = 0.0\nsamples = 2\nvalue = [2, 0, 0, 0]"] ;
805 -> 806 ;
807 [label="gini = 0.0\nsamples = 2\nvalue = [0, 0, 2, 0]"] ;
805 -> 807 ;
808 [label="X[3] <= 63.5\ngini = 0.32\nsamples = 5\nvalue = [4, 0, 0, 1]"] ;
804 -> 808 ;
809 [label="X[1] <= 30.0\ngini = 0.444\nsamples = 3\nvalue = [2, 0, 0, 1]"] ;
808 -> 809 ;
810 [label="gini = 0.5\nsamples = 2\nvalue = [1, 0, 0, 1]"] ;
809 -> 810 ;
811 [label="gini = 0.0\nsamples = 1\nvalue = [1, 0, 0, 0]"] ;
809 -> 811 ;
812 [label="gini = 0.0\nsamples = 2\nvalue = [2, 0, 0, 0]"] ;
808 -> 812 ;
813 [label="X[1] <= 31.5\ngini = 0.197\nsamples = 37\nvalue = [33, 3, 1, 0]"] ;
803 -> 813 ;
814 [label="X[1] <= 23.5\ngini = 0.164\nsamples = 34\nvalue = [31, 2, 1, 0]"] ;
813 -> 814 ;
815 [label="X[1] <= 22.5\ngini = 0.298\nsamples = 11\nvalue = [9, 2, 0, 0]"] ;
814 -> 815 ;
816 [label="X[3] <= 63.5\ngini = 0.198\nsamples = 9\nvalue = [8, 1, 0, 0]"] ;
815 -> 816 ;
817 [label="X[2] <= 177.5\ngini = 0.5\nsamples = 2\nvalue = [1, 1, 0, 0]"] ;
816 -> 817 ;
818 [label="gini = 0.0\nsamples = 1\nvalue = [1, 0, 0, 0]"] ;
817 -> 818 ;
819 [label="gini = 0.0\nsamples = 1\nvalue = [0, 1, 0, 0]"] ;
817 -> 819 ;
820 [label="gini = 0.0\nsamples = 7\nvalue = [7, 0, 0, 0]"] ;
816 -> 820 ;
821 [label="X[3] <= 66.5\ngini = 0.5\nsamples = 2\nvalue = [1, 1, 0, 0]"] ;
815 -> 821 ;
822 [label="gini = 0.0\nsamples = 1\nvalue = [1, 0, 0, 0]"] ;
821 -> 822 ;
823 [label="gini = 0.0\nsamples = 1\nvalue = [0, 1, 0, 0]"] ;
821 -> 823 ;
824 [label="X[2] <= 181.0\ngini = 0.083\nsamples = 23\nvalue = [22, 0, 1, 0]"] ;
814 -> 824 ;
825 [label="gini = 0.0\nsamples = 16\nvalue = [16, 0, 0, 0]"] ;
824 -> 825 ;
826 [label="X[2] <= 182.5\ngini = 0.245\nsamples = 7\nvalue = [6, 0, 1, 0]"] ;
824 -> 826 ;
827 [label="gini = 0.5\nsamples = 2\nvalue = [1, 0, 1, 0]"] ;
826 -> 827 ;
828 [label="gini = 0.0\nsamples = 5\nvalue = [5, 0, 0, 0]"] ;
826 -> 828 ;
829 [label="X[2] <= 179.0\ngini = 0.444\nsamples = 3\nvalue = [2, 1, 0, 0]"] ;
813 -> 829 ;
830 [label="gini = 0.0\nsamples = 1\nvalue = [0, 1, 0, 0]"] ;
829 -> 830 ;
831 [label="gini = 0.0\nsamples = 2\nvalue = [2, 0, 0, 0]"] ;
829 -> 831 ;
832 [label="X[1] <= 34.5\ngini = 0.298\nsamples = 11\nvalue = [9, 0, 0, 2]"] ;
800 -> 832 ;
833 [label="X[3] <= 59.0\ngini = 0.444\nsamples = 3\nvalue = [1, 0, 0, 2]"] ;
832 -> 833 ;
834 [label="gini = 0.0\nsamples = 1\nvalue = [0, 0, 0, 1]"] ;
833 -> 834 ;
835 [label="X[3] <= 64.0\ngini = 0.5\nsamples = 2\nvalue = [1, 0, 0, 1]"] ;
833 -> 835 ;
836 [label="gini = 0.0\nsamples = 1\nvalue = [1, 0, 0, 0]"] ;
835 -> 836 ;
837 [label="gini = 0.0\nsamples = 1\nvalue = [0, 0, 0, 1]"] ;
835 -> 837 ;
838 [label="gini = 0.0\nsamples = 8\nvalue = [8, 0, 0, 0]"] ;
832 -> 838 ;
839 [label="X[2] <= 189.5\ngini = 0.049\nsamples = 120\nvalue = [117, 0, 1, 2]"] ;
799 -> 839 ;
840 [label="X[3] <= 103.5\ngini = 0.019\nsamples = 103\nvalue = [102, 0, 0, 1]"] ;
839 -> 840 ;
841 [label="gini = 0.0\nsamples = 93\nvalue = [93, 0, 0, 0]"] ;
840 -> 841 ;
842 [label="X[3] <= 107.0\ngini = 0.18\nsamples = 10\nvalue = [9, 0, 0, 1]"] ;
840 -> 842 ;
843 [label="gini = 0.0\nsamples = 1\nvalue = [0, 0, 0, 1]"] ;
842 -> 843 ;
844 [label="gini = 0.0\nsamples = 9\nvalue = [9, 0, 0, 0]"] ;
842 -> 844 ;
845 [label="X[1] <= 28.5\ngini = 0.215\nsamples = 17\nvalue = [15, 0, 1, 1]"] ;
839 -> 845 ;
846 [label="X[3] <= 79.5\ngini = 0.133\nsamples = 14\nvalue = [13, 0, 1, 0]"] ;
845 -> 846 ;
847 [label="X[1] <= 22.0\ngini = 0.32\nsamples = 5\nvalue = [4, 0, 1, 0]"] ;
846 -> 847 ;
848 [label="gini = 0.0\nsamples = 2\nvalue = [2, 0, 0, 0]"] ;
847 -> 848 ;
849 [label="X[1] <= 23.5\ngini = 0.444\nsamples = 3\nvalue = [2, 0, 1, 0]"] ;
847 -> 849 ;
850 [label="gini = 0.0\nsamples = 1\nvalue = [0, 0, 1, 0]"] ;
849 -> 850 ;
851 [label="gini = 0.0\nsamples = 2\nvalue = [2, 0, 0, 0]"] ;
849 -> 851 ;
852 [label="gini = 0.0\nsamples = 9\nvalue = [9, 0, 0, 0]"] ;
846 -> 852 ;
853 [label="X[1] <= 29.5\ngini = 0.444\nsamples = 3\nvalue = [2, 0, 0, 1]"] ;
845 -> 853 ;
854 [label="gini = 0.0\nsamples = 1\nvalue = [0, 0, 0, 1]"] ;
853 -> 854 ;
855 [label="gini = 0.0\nsamples = 2\nvalue = [2, 0, 0, 0]"] ;
853 -> 855 ;
856 [label="X[3] <= 68.0\ngini = 0.312\nsamples = 56\nvalue = [46, 4, 1, 5]"] ;
794 -> 856 ;
857 [label="gini = 0.0\nsamples = 1\nvalue = [0, 1, 0, 0]"] ;
856 -> 857 ;
858 [label="X[1] <= 20.5\ngini = 0.289\nsamples = 55\nvalue = [46, 3, 1, 5]"] ;
856 -> 858 ;
859 [label="gini = 0.0\nsamples = 1\nvalue = [0, 0, 0, 1]"] ;
858 -> 859 ;
860 [label="X[1] <= 25.5\ngini = 0.265\nsamples = 54\nvalue = [46, 3, 1, 4]"] ;
858 -> 860 ;
861 [label="X[5] <= 2.0\ngini = 0.08\nsamples = 24\nvalue = [23, 0, 0, 1]"] ;
860 -> 861 ;
862 [label="X[3] <= 94.5\ngini = 0.32\nsamples = 5\nvalue = [4, 0, 0, 1]"] ;
861 -> 862 ;
863 [label="X[2] <= 191.5\ngini = 0.5\nsamples = 2\nvalue = [1, 0, 0, 1]"] ;
862 -> 863 ;
864 [label="gini = 0.0\nsamples = 1\nvalue = [1, 0, 0, 0]"] ;
863 -> 864 ;
865 [label="gini = 0.0\nsamples = 1\nvalue = [0, 0, 0, 1]"] ;
863 -> 865 ;
866 [label="gini = 0.0\nsamples = 3\nvalue = [3, 0, 0, 0]"] ;
862 -> 866 ;
867 [label="gini = 0.0\nsamples = 19\nvalue = [19, 0, 0, 0]"] ;
861 -> 867 ;
868 [label="X[3] <= 89.5\ngini = 0.391\nsamples = 30\nvalue = [23, 3, 1, 3]"] ;
860 -> 868 ;
869 [label="X[2] <= 193.5\ngini = 0.617\nsamples = 9\nvalue = [5, 2, 1, 1]"] ;
868 -> 869 ;
870 [label="X[2] <= 192.5\ngini = 0.531\nsamples = 8\nvalue = [5, 2, 1, 0]"] ;
869 -> 870 ;
871 [label="X[3] <= 81.0\ngini = 0.64\nsamples = 5\nvalue = [2, 2, 1, 0]"] ;
870 -> 871 ;
872 [label="gini = 0.0\nsamples = 1\nvalue = [0, 0, 1, 0]"] ;
871 -> 872 ;
873 [label="X[3] <= 84.0\ngini = 0.5\nsamples = 4\nvalue = [2, 2, 0, 0]"] ;
871 -> 873 ;
874 [label="gini = 0.0\nsamples = 1\nvalue = [0, 1, 0, 0]"] ;
873 -> 874 ;
875 [label="X[3] <= 87.5\ngini = 0.444\nsamples = 3\nvalue = [2, 1, 0, 0]"] ;
873 -> 875 ;
876 [label="gini = 0.0\nsamples = 1\nvalue = [1, 0, 0, 0]"] ;
875 -> 876 ;
877 [label="X[1] <= 32.0\ngini = 0.5\nsamples = 2\nvalue = [1, 1, 0, 0]"] ;
875 -> 877 ;
878 [label="gini = 0.0\nsamples = 1\nvalue = [0, 1, 0, 0]"] ;
877 -> 878 ;
879 [label="gini = 0.0\nsamples = 1\nvalue = [1, 0, 0, 0]"] ;
877 -> 879 ;
880 [label="gini = 0.0\nsamples = 3\nvalue = [3, 0, 0, 0]"] ;
870 -> 880 ;
881 [label="gini = 0.0\nsamples = 1\nvalue = [0, 0, 0, 1]"] ;
869 -> 881 ;
882 [label="X[3] <= 99.5\ngini = 0.254\nsamples = 21\nvalue = [18, 1, 0, 2]"] ;
868 -> 882 ;
883 [label="gini = 0.0\nsamples = 9\nvalue = [9, 0, 0, 0]"] ;
882 -> 883 ;
884 [label="X[5] <= 2.0\ngini = 0.403\nsamples = 12\nvalue = [9, 1, 0, 2]"] ;
882 -> 884 ;
885 [label="gini = 0.0\nsamples = 1\nvalue = [0, 1, 0, 0]"] ;
884 -> 885 ;
886 [label="X[3] <= 100.5\ngini = 0.298\nsamples = 11\nvalue = [9, 0, 0, 2]"] ;
884 -> 886 ;
887 [label="X[2] <= 193.0\ngini = 0.5\nsamples = 4\nvalue = [2, 0, 0, 2]"] ;
886 -> 887 ;
888 [label="X[1] <= 33.0\ngini = 0.444\nsamples = 3\nvalue = [1, 0, 0, 2]"] ;
887 -> 888 ;
889 [label="gini = 0.0\nsamples = 2\nvalue = [0, 0, 0, 2]"] ;
888 -> 889 ;
890 [label="gini = 0.0\nsamples = 1\nvalue = [1, 0, 0, 0]"] ;
888 -> 890 ;
891 [label="gini = 0.0\nsamples = 1\nvalue = [1, 0, 0, 0]"] ;
887 -> 891 ;
892 [label="gini = 0.0\nsamples = 7\nvalue = [7, 0, 0, 0]"] ;
886 -> 892 ;
893 [label="X[5] <= 6.0\ngini = 0.424\nsamples = 1120\nvalue = [833, 95, 74, 118]"] ;
793 -> 893 ;
894 [label="X[1] <= 24.5\ngini = 0.669\nsamples = 114\nvalue = [52, 34, 9, 19]"] ;
893 -> 894 ;
895 [label="X[1] <= 21.5\ngini = 0.687\nsamples = 44\nvalue = [12, 17, 2, 13]"] ;
894 -> 895 ;
896 [label="X[2] <= 189.0\ngini = 0.556\nsamples = 13\nvalue = [1, 8, 1, 3]"] ;
895 -> 896 ;
897 [label="X[3] <= 125.0\ngini = 0.486\nsamples = 12\nvalue = [1, 8, 0, 3]"] ;
896 -> 897 ;
898 [label="X[3] <= 70.0\ngini = 0.43\nsamples = 11\nvalue = [1, 8, 0, 2]"] ;
897 -> 898 ;
899 [label="X[2] <= 166.5\ngini = 0.64\nsamples = 5\nvalue = [1, 2, 0, 2]"] ;
898 -> 899 ;
900 [label="X[1] <= 20.5\ngini = 0.444\nsamples = 3\nvalue = [1, 2, 0, 0]"] ;
899 -> 900 ;
901 [label="gini = 0.0\nsamples = 2\nvalue = [0, 2, 0, 0]"] ;
900 -> 901 ;
902 [label="gini = 0.0\nsamples = 1\nvalue = [1, 0, 0, 0]"] ;
900 -> 902 ;
903 [label="gini = 0.0\nsamples = 2\nvalue = [0, 0, 0, 2]"] ;
899 -> 903 ;
904 [label="gini = 0.0\nsamples = 6\nvalue = [0, 6, 0, 0]"] ;
898 -> 904 ;
905 [label="gini = 0.0\nsamples = 1\nvalue = [0, 0, 0, 1]"] ;
897 -> 905 ;
906 [label="gini = 0.0\nsamples = 1\nvalue = [0, 0, 1, 0]"] ;
896 -> 906 ;
907 [label="X[1] <= 23.5\ngini = 0.685\nsamples = 31\nvalue = [11, 9, 1, 10]"] ;
895 -> 907 ;
908 [label="X[2] <= 179.0\ngini = 0.669\nsamples = 23\nvalue = [10, 7, 1, 5]"] ;
907 -> 908 ;
909 [label="X[3] <= 77.0\ngini = 0.653\nsamples = 12\nvalue = [3, 6, 1, 2]"] ;
908 -> 909 ;
910 [label="X[3] <= 70.0\ngini = 0.735\nsamples = 7\nvalue = [2, 2, 1, 2]"] ;
909 -> 910 ;
911 [label="X[1] <= 22.5\ngini = 0.64\nsamples = 5\nvalue = [2, 2, 0, 1]"] ;
910 -> 911 ;
912 [label="X[2] <= 162.5\ngini = 0.5\nsamples = 2\nvalue = [1, 0, 0, 1]"] ;
911 -> 912 ;
913 [label="gini = 0.0\nsamples = 1\nvalue = [0, 0, 0, 1]"] ;
912 -> 913 ;
914 [label="gini = 0.0\nsamples = 1\nvalue = [1, 0, 0, 0]"] ;
912 -> 914 ;
915 [label="X[3] <= 55.5\ngini = 0.444\nsamples = 3\nvalue = [1, 2, 0, 0]"] ;
911 -> 915 ;
916 [label="gini = 0.0\nsamples = 1\nvalue = [0, 1, 0, 0]"] ;
915 -> 916 ;
917 [label="X[3] <= 58.75\ngini = 0.5\nsamples = 2\nvalue = [1, 1, 0, 0]"] ;
915 -> 917 ;
918 [label="gini = 0.0\nsamples = 1\nvalue = [1, 0, 0, 0]"] ;
917 -> 918 ;
919 [label="gini = 0.0\nsamples = 1\nvalue = [0, 1, 0, 0]"] ;
917 -> 919 ;
920 [label="X[2] <= 172.0\ngini = 0.5\nsamples = 2\nvalue = [0, 0, 1, 1]"] ;
910 -> 920 ;
921 [label="gini = 0.0\nsamples = 1\nvalue = [0, 0, 1, 0]"] ;
920 -> 921 ;
922 [label="gini = 0.0\nsamples = 1\nvalue = [0, 0, 0, 1]"] ;
920 -> 922 ;
923 [label="X[1] <= 22.5\ngini = 0.32\nsamples = 5\nvalue = [1, 4, 0, 0]"] ;
909 -> 923 ;
924 [label="gini = 0.0\nsamples = 2\nvalue = [0, 2, 0, 0]"] ;
923 -> 924 ;
925 [label="X[2] <= 176.0\ngini = 0.444\nsamples = 3\nvalue = [1, 2, 0, 0]"] ;
923 -> 925 ;
926 [label="gini = 0.0\nsamples = 1\nvalue = [0, 1, 0, 0]"] ;
925 -> 926 ;
927 [label="gini = 0.5\nsamples = 2\nvalue = [1, 1, 0, 0]"] ;
925 -> 927 ;
928 [label="X[2] <= 186.5\ngini = 0.512\nsamples = 11\nvalue = [7, 1, 0, 3]"] ;
908 -> 928 ;
929 [label="X[1] <= 22.5\ngini = 0.278\nsamples = 6\nvalue = [5, 1, 0, 0]"] ;
928 -> 929 ;
930 [label="gini = 0.0\nsamples = 4\nvalue = [4, 0, 0, 0]"] ;
929 -> 930 ;
931 [label="X[5] <= 4.5\ngini = 0.5\nsamples = 2\nvalue = [1, 1, 0, 0]"] ;
929 -> 931 ;
932 [label="gini = 0.0\nsamples = 1\nvalue = [0, 1, 0, 0]"] ;
931 -> 932 ;
933 [label="gini = 0.0\nsamples = 1\nvalue = [1, 0, 0, 0]"] ;
931 -> 933 ;
934 [label="X[3] <= 99.0\ngini = 0.48\nsamples = 5\nvalue = [2, 0, 0, 3]"] ;
928 -> 934 ;
935 [label="X[3] <= 85.5\ngini = 0.444\nsamples = 3\nvalue = [2, 0, 0, 1]"] ;
934 -> 935 ;
936 [label="gini = 0.0\nsamples = 1\nvalue = [1, 0, 0, 0]"] ;
935 -> 936 ;
937 [label="X[2] <= 188.5\ngini = 0.5\nsamples = 2\nvalue = [1, 0, 0, 1]"] ;
935 -> 937 ;
938 [label="gini = 0.0\nsamples = 1\nvalue = [0, 0, 0, 1]"] ;
937 -> 938 ;
939 [label="gini = 0.0\nsamples = 1\nvalue = [1, 0, 0, 0]"] ;
937 -> 939 ;
940 [label="gini = 0.0\nsamples = 2\nvalue = [0, 0, 0, 2]"] ;
934 -> 940 ;
941 [label="X[2] <= 181.5\ngini = 0.531\nsamples = 8\nvalue = [1, 2, 0, 5]"] ;
907 -> 941 ;
942 [label="X[2] <= 161.0\ngini = 0.449\nsamples = 7\nvalue = [1, 1, 0, 5]"] ;
941 -> 942 ;
943 [label="X[2] <= 154.5\ngini = 0.667\nsamples = 3\nvalue = [1, 1, 0, 1]"] ;
942 -> 943 ;
944 [label="gini = 0.0\nsamples = 1\nvalue = [0, 0, 0, 1]"] ;
943 -> 944 ;
945 [label="X[2] <= 157.5\ngini = 0.5\nsamples = 2\nvalue = [1, 1, 0, 0]"] ;
943 -> 945 ;
946 [label="gini = 0.0\nsamples = 1\nvalue = [1, 0, 0, 0]"] ;
945 -> 946 ;
947 [label="gini = 0.0\nsamples = 1\nvalue = [0, 1, 0, 0]"] ;
945 -> 947 ;
948 [label="gini = 0.0\nsamples = 4\nvalue = [0, 0, 0, 4]"] ;
942 -> 948 ;
949 [label="gini = 0.0\nsamples = 1\nvalue = [0, 1, 0, 0]"] ;
941 -> 949 ;
950 [label="X[2] <= 169.5\ngini = 0.597\nsamples = 70\nvalue = [40, 17, 7, 6]"] ;
894 -> 950 ;
951 [label="X[2] <= 156.0\ngini = 0.277\nsamples = 19\nvalue = [16, 1, 2, 0]"] ;
950 -> 951 ;
952 [label="gini = 0.0\nsamples = 1\nvalue = [0, 0, 1, 0]"] ;
951 -> 952 ;
953 [label="X[1] <= 25.5\ngini = 0.204\nsamples = 18\nvalue = [16, 1, 1, 0]"] ;
951 -> 953 ;
954 [label="X[2] <= 167.0\ngini = 0.449\nsamples = 7\nvalue = [5, 1, 1, 0]"] ;
953 -> 954 ;
955 [label="X[3] <= 57.5\ngini = 0.278\nsamples = 6\nvalue = [5, 1, 0, 0]"] ;
954 -> 955 ;
956 [label="X[3] <= 54.5\ngini = 0.444\nsamples = 3\nvalue = [2, 1, 0, 0]"] ;
955 -> 956 ;
957 [label="gini = 0.0\nsamples = 2\nvalue = [2, 0, 0, 0]"] ;
956 -> 957 ;
958 [label="gini = 0.0\nsamples = 1\nvalue = [0, 1, 0, 0]"] ;
956 -> 958 ;
959 [label="gini = 0.0\nsamples = 3\nvalue = [3, 0, 0, 0]"] ;
955 -> 959 ;
960 [label="gini = 0.0\nsamples = 1\nvalue = [0, 0, 1, 0]"] ;
954 -> 960 ;
961 [label="gini = 0.0\nsamples = 11\nvalue = [11, 0, 0, 0]"] ;
953 -> 961 ;
962 [label="X[2] <= 170.5\ngini = 0.657\nsamples = 51\nvalue = [24, 16, 5, 6]"] ;
950 -> 962 ;
963 [label="gini = 0.0\nsamples = 2\nvalue = [0, 2, 0, 0]"] ;
962 -> 963 ;
964 [label="X[1] <= 27.5\ngini = 0.653\nsamples = 49\nvalue = [24, 14, 5, 6]"] ;
962 -> 964 ;
965 [label="X[2] <= 176.0\ngini = 0.482\nsamples = 19\nvalue = [13, 4, 1, 1]"] ;
964 -> 965 ;
966 [label="X[3] <= 72.0\ngini = 0.625\nsamples = 4\nvalue = [1, 2, 0, 1]"] ;
965 -> 966 ;
967 [label="X[2] <= 172.5\ngini = 0.5\nsamples = 2\nvalue = [1, 0, 0, 1]"] ;
966 -> 967 ;
968 [label="gini = 0.0\nsamples = 1\nvalue = [0, 0, 0, 1]"] ;
967 -> 968 ;
969 [label="gini = 0.0\nsamples = 1\nvalue = [1, 0, 0, 0]"] ;
967 -> 969 ;
970 [label="gini = 0.0\nsamples = 2\nvalue = [0, 2, 0, 0]"] ;
966 -> 970 ;
971 [label="X[2] <= 187.5\ngini = 0.338\nsamples = 15\nvalue = [12, 2, 1, 0]"] ;
965 -> 971 ;
972 [label="X[2] <= 181.0\ngini = 0.26\nsamples = 13\nvalue = [11, 2, 0, 0]"] ;
971 -> 972 ;
973 [label="gini = 0.0\nsamples = 6\nvalue = [6, 0, 0, 0]"] ;
972 -> 973 ;
974 [label="X[3] <= 81.0\ngini = 0.408\nsamples = 7\nvalue = [5, 2, 0, 0]"] ;
972 -> 974 ;
975 [label="gini = 0.0\nsamples = 1\nvalue = [0, 1, 0, 0]"] ;
974 -> 975 ;
976 [label="X[3] <= 91.0\ngini = 0.278\nsamples = 6\nvalue = [5, 1, 0, 0]"] ;
974 -> 976 ;
977 [label="gini = 0.0\nsamples = 4\nvalue = [4, 0, 0, 0]"] ;
976 -> 977 ;
978 [label="X[2] <= 183.5\ngini = 0.5\nsamples = 2\nvalue = [1, 1, 0, 0]"] ;
976 -> 978 ;
979 [label="gini = 0.0\nsamples = 1\nvalue = [1, 0, 0, 0]"] ;
978 -> 979 ;
980 [label="gini = 0.0\nsamples = 1\nvalue = [0, 1, 0, 0]"] ;
978 -> 980 ;
981 [label="X[2] <= 189.0\ngini = 0.5\nsamples = 2\nvalue = [1, 0, 1, 0]"] ;
971 -> 981 ;
982 [label="gini = 0.0\nsamples = 1\nvalue = [0, 0, 1, 0]"] ;
981 -> 982 ;
983 [label="gini = 0.0\nsamples = 1\nvalue = [1, 0, 0, 0]"] ;
981 -> 983 ;
984 [label="X[1] <= 29.5\ngini = 0.709\nsamples = 30\nvalue = [11, 10, 4, 5]"] ;
964 -> 984 ;
985 [label="X[2] <= 176.5\ngini = 0.64\nsamples = 15\nvalue = [3, 8, 2, 2]"] ;
984 -> 985 ;
986 [label="X[3] <= 90.0\ngini = 0.5\nsamples = 4\nvalue = [2, 0, 2, 0]"] ;
985 -> 986 ;
987 [label="X[2] <= 172.5\ngini = 0.444\nsamples = 3\nvalue = [2, 0, 1, 0]"] ;
986 -> 987 ;
988 [label="gini = 0.0\nsamples = 1\nvalue = [1, 0, 0, 0]"] ;
987 -> 988 ;
989 [label="X[3] <= 79.0\ngini = 0.5\nsamples = 2\nvalue = [1, 0, 1, 0]"] ;
987 -> 989 ;
990 [label="gini = 0.0\nsamples = 1\nvalue = [0, 0, 1, 0]"] ;
989 -> 990 ;
991 [label="gini = 0.0\nsamples = 1\nvalue = [1, 0, 0, 0]"] ;
989 -> 991 ;
992 [label="gini = 0.0\nsamples = 1\nvalue = [0, 0, 1, 0]"] ;
986 -> 992 ;
993 [label="X[3] <= 116.5\ngini = 0.43\nsamples = 11\nvalue = [1, 8, 0, 2]"] ;
985 -> 993 ;
994 [label="X[2] <= 193.5\ngini = 0.32\nsamples = 10\nvalue = [0, 8, 0, 2]"] ;
993 -> 994 ;
995 [label="X[2] <= 185.5\ngini = 0.198\nsamples = 9\nvalue = [0, 8, 0, 1]"] ;
994 -> 995 ;
996 [label="gini = 0.0\nsamples = 5\nvalue = [0, 5, 0, 0]"] ;
995 -> 996 ;
997 [label="X[3] <= 93.0\ngini = 0.375\nsamples = 4\nvalue = [0, 3, 0, 1]"] ;
995 -> 997 ;
998 [label="X[3] <= 86.5\ngini = 0.5\nsamples = 2\nvalue = [0, 1, 0, 1]"] ;
997 -> 998 ;
999 [label="gini = 0.0\nsamples = 1\nvalue = [0, 1, 0, 0]"] ;
998 -> 999 ;
1000 [label="gini = 0.0\nsamples = 1\nvalue = [0, 0, 0, 1]"] ;
998 -> 1000 ;
1001 [label="gini = 0.0\nsamples = 2\nvalue = [0, 2, 0, 0]"] ;
997 -> 1001 ;
1002 [label="gini = 0.0\nsamples = 1\nvalue = [0, 0, 0, 1]"] ;
994 -> 1002 ;
1003 [label="gini = 0.0\nsamples = 1\nvalue = [1, 0, 0, 0]"] ;
993 -> 1003 ;
1004 [label="X[3] <= 83.5\ngini = 0.64\nsamples = 15\nvalue = [8, 2, 2, 3]"] ;
984 -> 1004 ;
1005 [label="gini = 0.0\nsamples = 2\nvalue = [0, 2, 0, 0]"] ;
1004 -> 1005 ;
1006 [label="X[5] <= 4.5\ngini = 0.544\nsamples = 13\nvalue = [8, 0, 2, 3]"] ;
1004 -> 1006 ;
1007 [label="X[3] <= 90.5\ngini = 0.48\nsamples = 5\nvalue = [3, 0, 2, 0]"] ;
1006 -> 1007 ;
1008 [label="gini = 0.0\nsamples = 1\nvalue = [0, 0, 1, 0]"] ;
1007 -> 1008 ;
1009 [label="X[2] <= 190.5\ngini = 0.375\nsamples = 4\nvalue = [3, 0, 1, 0]"] ;
1007 -> 1009 ;
1010 [label="gini = 0.0\nsamples = 3\nvalue = [3, 0, 0, 0]"] ;
1009 -> 1010 ;
1011 [label="gini = 0.0\nsamples = 1\nvalue = [0, 0, 1, 0]"] ;
1009 -> 1011 ;
1012 [label="X[1] <= 31.5\ngini = 0.469\nsamples = 8\nvalue = [5, 0, 0, 3]"] ;
1006 -> 1012 ;
1013 [label="gini = 0.0\nsamples = 2\nvalue = [0, 0, 0, 2]"] ;
1012 -> 1013 ;
1014 [label="X[2] <= 183.0\ngini = 0.278\nsamples = 6\nvalue = [5, 0, 0, 1]"] ;
1012 -> 1014 ;
1015 [label="X[1] <= 35.0\ngini = 0.5\nsamples = 2\nvalue = [1, 0, 0, 1]"] ;
1014 -> 1015 ;
1016 [label="gini = 0.0\nsamples = 1\nvalue = [0, 0, 0, 1]"] ;
1015 -> 1016 ;
1017 [label="gini = 0.0\nsamples = 1\nvalue = [1, 0, 0, 0]"] ;
1015 -> 1017 ;
1018 [label="gini = 0.0\nsamples = 4\nvalue = [4, 0, 0, 0]"] ;
1014 -> 1018 ;
1019 [label="X[3] <= 102.0\ngini = 0.38\nsamples = 1006\nvalue = [781, 61, 65, 99]"] ;
893 -> 1019 ;
1020 [label="X[3] <= 54.5\ngini = 0.37\nsamples = 988\nvalue = [774, 60, 59, 95]"] ;
1019 -> 1020 ;
1021 [label="X[1] <= 27.5\ngini = 0.551\nsamples = 15\nvalue = [8, 0, 1, 6]"] ;
1020 -> 1021 ;
1022 [label="X[3] <= 51.5\ngini = 0.43\nsamples = 11\nvalue = [8, 0, 1, 2]"] ;
1021 -> 1022 ;
1023 [label="gini = 0.0\nsamples = 5\nvalue = [5, 0, 0, 0]"] ;
1022 -> 1023 ;
1024 [label="X[1] <= 23.5\ngini = 0.611\nsamples = 6\nvalue = [3, 0, 1, 2]"] ;
1022 -> 1024 ;
1025 [label="X[1] <= 20.5\ngini = 0.444\nsamples = 3\nvalue = [1, 0, 0, 2]"] ;
1024 -> 1025 ;
1026 [label="gini = 0.0\nsamples = 1\nvalue = [1, 0, 0, 0]"] ;
1025 -> 1026 ;
1027 [label="gini = 0.0\nsamples = 2\nvalue = [0, 0, 0, 2]"] ;
1025 -> 1027 ;
1028 [label="X[1] <= 25.0\ngini = 0.444\nsamples = 3\nvalue = [2, 0, 1, 0]"] ;
1024 -> 1028 ;
1029 [label="gini = 0.0\nsamples = 1\nvalue = [1, 0, 0, 0]"] ;
1028 -> 1029 ;
1030 [label="X[3] <= 53.0\ngini = 0.5\nsamples = 2\nvalue = [1, 0, 1, 0]"] ;
1028 -> 1030 ;
1031 [label="gini = 0.0\nsamples = 1\nvalue = [1, 0, 0, 0]"] ;
1030 -> 1031 ;
1032 [label="gini = 0.0\nsamples = 1\nvalue = [0, 0, 1, 0]"] ;
1030 -> 1032 ;
1033 [label="gini = 0.0\nsamples = 4\nvalue = [0, 0, 0, 4]"] ;
1021 -> 1033 ;
1034 [label="X[3] <= 77.5\ngini = 0.365\nsamples = 973\nvalue = [766, 60, 58, 89]"] ;
1020 -> 1034 ;
1035 [label="X[1] <= 43.5\ngini = 0.316\nsamples = 617\nvalue = [506, 31, 32, 48]"] ;
1034 -> 1035 ;
1036 [label="X[5] <= 7.5\ngini = 0.314\nsamples = 616\nvalue = [506, 31, 32, 47]"] ;
1035 -> 1036 ;
1037 [label="X[2] <= 186.5\ngini = 0.16\nsamples = 93\nvalue = [85, 0, 2, 6]"] ;
1036 -> 1037 ;
1038 [label="X[1] <= 20.5\ngini = 0.074\nsamples = 52\nvalue = [50, 0, 0, 2]"] ;
1037 -> 1038 ;
1039 [label="X[3] <= 74.0\ngini = 0.159\nsamples = 23\nvalue = [21, 0, 0, 2]"] ;
1038 -> 1039 ;
1040 [label="X[3] <= 72.0\ngini = 0.231\nsamples = 15\nvalue = [13, 0, 0, 2]"] ;
1039 -> 1040 ;
1041 [label="X[3] <= 69.5\ngini = 0.153\nsamples = 12\nvalue = [11, 0, 0, 1]"] ;
1040 -> 1041 ;
1042 [label="X[3] <= 68.5\ngini = 0.32\nsamples = 5\nvalue = [4, 0, 0, 1]"] ;
1041 -> 1042 ;
1043 [label="gini = 0.0\nsamples = 2\nvalue = [2, 0, 0, 0]"] ;
1042 -> 1043 ;
1044 [label="gini = 0.444\nsamples = 3\nvalue = [2, 0, 0, 1]"] ;
1042 -> 1044 ;
1045 [label="gini = 0.0\nsamples = 7\nvalue = [7, 0, 0, 0]"] ;
1041 -> 1045 ;
1046 [label="gini = 0.444\nsamples = 3\nvalue = [2, 0, 0, 1]"] ;
1040 -> 1046 ;
1047 [label="gini = 0.0\nsamples = 8\nvalue = [8, 0, 0, 0]"] ;
1039 -> 1047 ;
1048 [label="gini = 0.0\nsamples = 29\nvalue = [29, 0, 0, 0]"] ;
1038 -> 1048 ;
1049 [label="X[2] <= 189.0\ngini = 0.259\nsamples = 41\nvalue = [35, 0, 2, 4]"] ;
1037 -> 1049 ;
1050 [label="X[3] <= 74.5\ngini = 0.368\nsamples = 27\nvalue = [21, 0, 2, 4]"] ;
1049 -> 1050 ;
1051 [label="X[1] <= 23.5\ngini = 0.305\nsamples = 16\nvalue = [13, 0, 0, 3]"] ;
1050 -> 1051 ;
1052 [label="X[1] <= 18.0\ngini = 0.397\nsamples = 11\nvalue = [8, 0, 0, 3]"] ;
1051 -> 1052 ;
1053 [label="gini = 0.0\nsamples = 2\nvalue = [2, 0, 0, 0]"] ;
1052 -> 1053 ;
1054 [label="X[2] <= 187.5\ngini = 0.444\nsamples = 9\nvalue = [6, 0, 0, 3]"] ;
1052 -> 1054 ;
1055 [label="X[1] <= 22.5\ngini = 0.32\nsamples = 5\nvalue = [4, 0, 0, 1]"] ;
1054 -> 1055 ;
1056 [label="gini = 0.0\nsamples = 3\nvalue = [3, 0, 0, 0]"] ;
1055 -> 1056 ;
1057 [label="gini = 0.5\nsamples = 2\nvalue = [1, 0, 0, 1]"] ;
1055 -> 1057 ;
1058 [label="X[3] <= 72.5\ngini = 0.5\nsamples = 4\nvalue = [2, 0, 0, 2]"] ;
1054 -> 1058 ;
1059 [label="gini = 0.5\nsamples = 2\nvalue = [1, 0, 0, 1]"] ;
1058 -> 1059 ;
1060 [label="gini = 0.5\nsamples = 2\nvalue = [1, 0, 0, 1]"] ;
1058 -> 1060 ;
1061 [label="gini = 0.0\nsamples = 5\nvalue = [5, 0, 0, 0]"] ;
1051 -> 1061 ;
1062 [label="X[1] <= 25.5\ngini = 0.43\nsamples = 11\nvalue = [8, 0, 2, 1]"] ;
1050 -> 1062 ;
1063 [label="X[1] <= 20.0\ngini = 0.346\nsamples = 9\nvalue = [7, 0, 2, 0]"] ;
1062 -> 1063 ;
1064 [label="gini = 0.0\nsamples = 1\nvalue = [1, 0, 0, 0]"] ;
1063 -> 1064 ;
1065 [label="X[3] <= 76.0\ngini = 0.375\nsamples = 8\nvalue = [6, 0, 2, 0]"] ;
1063 -> 1065 ;
1066 [label="gini = 0.444\nsamples = 3\nvalue = [2, 0, 1, 0]"] ;
1065 -> 1066 ;
1067 [label="gini = 0.32\nsamples = 5\nvalue = [4, 0, 1, 0]"] ;
1065 -> 1067 ;
1068 [label="gini = 0.5\nsamples = 2\nvalue = [1, 0, 0, 1]"] ;
1062 -> 1068 ;
1069 [label="gini = 0.0\nsamples = 14\nvalue = [14, 0, 0, 0]"] ;
1049 -> 1069 ;
1070 [label="X[5] <= 8.5\ngini = 0.339\nsamples = 523\nvalue = [421, 31, 30, 41]"] ;
1036 -> 1070 ;
1071 [label="X[2] <= 168.5\ngini = 0.639\nsamples = 26\nvalue = [13, 5, 1, 7]"] ;
1070 -> 1071 ;
1072 [label="X[3] <= 58.5\ngini = 0.5\nsamples = 4\nvalue = [0, 2, 0, 2]"] ;
1071 -> 1072 ;
1073 [label="gini = 0.0\nsamples = 2\nvalue = [0, 0, 0, 2]"] ;
1072 -> 1073 ;
1074 [label="gini = 0.0\nsamples = 2\nvalue = [0, 2, 0, 0]"] ;
1072 -> 1074 ;
1075 [label="X[2] <= 176.0\ngini = 0.579\nsamples = 22\nvalue = [13, 3, 1, 5]"] ;
1071 -> 1075 ;
1076 [label="X[1] <= 25.5\ngini = 0.426\nsamples = 13\nvalue = [9, 0, 0, 4]"] ;
1075 -> 1076 ;
1077 [label="X[2] <= 173.5\ngini = 0.494\nsamples = 9\nvalue = [5, 0, 0, 4]"] ;
1076 -> 1077 ;
1078 [label="X[3] <= 58.5\ngini = 0.408\nsamples = 7\nvalue = [5, 0, 0, 2]"] ;
1077 -> 1078 ;
1079 [label="gini = 0.0\nsamples = 2\nvalue = [2, 0, 0, 0]"] ;
1078 -> 1079 ;
1080 [label="X[3] <= 61.5\ngini = 0.48\nsamples = 5\nvalue = [3, 0, 0, 2]"] ;
1078 -> 1080 ;
1081 [label="gini = 0.0\nsamples = 1\nvalue = [0, 0, 0, 1]"] ;
1080 -> 1081 ;
1082 [label="X[2] <= 171.5\ngini = 0.375\nsamples = 4\nvalue = [3, 0, 0, 1]"] ;
1080 -> 1082 ;
1083 [label="X[1] <= 23.5\ngini = 0.5\nsamples = 2\nvalue = [1, 0, 0, 1]"] ;
1082 -> 1083 ;
1084 [label="gini = 0.0\nsamples = 1\nvalue = [1, 0, 0, 0]"] ;
1083 -> 1084 ;
1085 [label="gini = 0.0\nsamples = 1\nvalue = [0, 0, 0, 1]"] ;
1083 -> 1085 ;
1086 [label="gini = 0.0\nsamples = 2\nvalue = [2, 0, 0, 0]"] ;
1082 -> 1086 ;
1087 [label="gini = 0.0\nsamples = 2\nvalue = [0, 0, 0, 2]"] ;
1077 -> 1087 ;
1088 [label="gini = 0.0\nsamples = 4\nvalue = [4, 0, 0, 0]"] ;
1076 -> 1088 ;
1089 [label="X[1] <= 28.5\ngini = 0.667\nsamples = 9\nvalue = [4, 3, 1, 1]"] ;
1075 -> 1089 ;
1090 [label="X[1] <= 21.5\ngini = 0.594\nsamples = 8\nvalue = [4, 3, 1, 0]"] ;
1089 -> 1090 ;
1091 [label="gini = 0.0\nsamples = 2\nvalue = [2, 0, 0, 0]"] ;
1090 -> 1091 ;
1092 [label="X[3] <= 72.0\ngini = 0.611\nsamples = 6\nvalue = [2, 3, 1, 0]"] ;
1090 -> 1092 ;
1093 [label="gini = 0.0\nsamples = 2\nvalue = [0, 2, 0, 0]"] ;
1092 -> 1093 ;
1094 [label="X[1] <= 24.0\ngini = 0.625\nsamples = 4\nvalue = [2, 1, 1, 0]"] ;
1092 -> 1094 ;
1095 [label="gini = 0.0\nsamples = 1\nvalue = [0, 0, 1, 0]"] ;
1094 -> 1095 ;
1096 [label="X[2] <= 181.0\ngini = 0.444\nsamples = 3\nvalue = [2, 1, 0, 0]"] ;
1094 -> 1096 ;
1097 [label="gini = 0.0\nsamples = 1\nvalue = [1, 0, 0, 0]"] ;
1096 -> 1097 ;
1098 [label="X[2] <= 183.5\ngini = 0.5\nsamples = 2\nvalue = [1, 1, 0, 0]"] ;
1096 -> 1098 ;
1099 [label="gini = 0.0\nsamples = 1\nvalue = [0, 1, 0, 0]"] ;
1098 -> 1099 ;
1100 [label="gini = 0.0\nsamples = 1\nvalue = [1, 0, 0, 0]"] ;
1098 -> 1100 ;
1101 [label="gini = 0.0\nsamples = 1\nvalue = [0, 0, 0, 1]"] ;
1089 -> 1101 ;
1102 [label="X[2] <= 170.5\ngini = 0.315\nsamples = 497\nvalue = [408, 26, 29, 34]"] ;
1070 -> 1102 ;
1103 [label="X[1] <= 40.0\ngini = 0.238\nsamples = 230\nvalue = [200, 8, 10, 12]"] ;
1102 -> 1103 ;
1104 [label="X[2] <= 162.5\ngini = 0.233\nsamples = 228\nvalue = [199, 7, 10, 12]"] ;
1103 -> 1104 ;
1105 [label="X[3] <= 61.0\ngini = 0.314\nsamples = 50\nvalue = [41, 1, 4, 4]"] ;
1104 -> 1105 ;
1106 [label="X[1] <= 24.0\ngini = 0.191\nsamples = 39\nvalue = [35, 1, 1, 2]"] ;
1105 -> 1106 ;
1107 [label="X[3] <= 57.0\ngini = 0.285\nsamples = 25\nvalue = [21, 1, 1, 2]"] ;
1106 -> 1107 ;
1108 [label="X[1] <= 20.0\ngini = 0.215\nsamples = 17\nvalue = [15, 1, 0, 1]"] ;
1107 -> 1108 ;
1109 [label="gini = 0.219\nsamples = 8\nvalue = [7, 1, 0, 0]"] ;
1108 -> 1109 ;
1110 [label="X[5] <= 16.5\ngini = 0.198\nsamples = 9\nvalue = [8, 0, 0, 1]"] ;
1108 -> 1110 ;
1111 [label="gini = 0.219\nsamples = 8\nvalue = [7, 0, 0, 1]"] ;
1110 -> 1111 ;
1112 [label="gini = 0.0\nsamples = 1\nvalue = [1, 0, 0, 0]"] ;
1110 -> 1112 ;
1113 [label="gini = 0.406\nsamples = 8\nvalue = [6, 0, 1, 1]"] ;
1107 -> 1113 ;
1114 [label="gini = 0.0\nsamples = 14\nvalue = [14, 0, 0, 0]"] ;
1106 -> 1114 ;
1115 [label="X[2] <= 160.5\ngini = 0.595\nsamples = 11\nvalue = [6, 0, 3, 2]"] ;
1105 -> 1115 ;
1116 [label="gini = 0.0\nsamples = 1\nvalue = [1, 0, 0, 0]"] ;
1115 -> 1116 ;
1117 [label="X[1] <= 21.5\ngini = 0.62\nsamples = 10\nvalue = [5, 0, 3, 2]"] ;
1115 -> 1117 ;
1118 [label="gini = 0.5\nsamples = 6\nvalue = [4, 0, 1, 1]"] ;
1117 -> 1118 ;
1119 [label="gini = 0.625\nsamples = 4\nvalue = [1, 0, 2, 1]"] ;
1117 -> 1119 ;
1120 [label="X[5] <= 19.5\ngini = 0.208\nsamples = 178\nvalue = [158, 6, 6, 8]"] ;
1104 -> 1120 ;
1121 [label="X[5] <= 12.0\ngini = 0.18\nsamples = 156\nvalue = [141, 4, 4, 7]"] ;
1120 -> 1121 ;
1122 [label="X[1] <= 28.5\ngini = 0.406\nsamples = 8\nvalue = [6, 0, 1, 1]"] ;
1121 -> 1122 ;
1123 [label="gini = 0.0\nsamples = 5\nvalue = [5, 0, 0, 0]"] ;
1122 -> 1123 ;
1124 [label="X[3] <= 73.5\ngini = 0.667\nsamples = 3\nvalue = [1, 0, 1, 1]"] ;
1122 -> 1124 ;
1125 [label="gini = 0.5\nsamples = 2\nvalue = [0, 0, 1, 1]"] ;
1124 -> 1125 ;
1126 [label="gini = 0.0\nsamples = 1\nvalue = [1, 0, 0, 0]"] ;
1124 -> 1126 ;
1127 [label="X[1] <= 18.5\ngini = 0.165\nsamples = 148\nvalue = [135, 4, 3, 6]"] ;
1121 -> 1127 ;
1128 [label="X[2] <= 167.0\ngini = 0.34\nsamples = 10\nvalue = [8, 1, 0, 1]"] ;
1127 -> 1128 ;
1129 [label="gini = 0.245\nsamples = 7\nvalue = [6, 1, 0, 0]"] ;
1128 -> 1129 ;
1130 [label="gini = 0.444\nsamples = 3\nvalue = [2, 0, 0, 1]"] ;
1128 -> 1130 ;
1131 [label="X[2] <= 166.5\ngini = 0.151\nsamples = 138\nvalue = [127, 3, 3, 5]"] ;
1127 -> 1131 ;
1132 [label="X[1] <= 20.5\ngini = 0.203\nsamples = 82\nvalue = [73, 2, 2, 5]"] ;
1131 -> 1132 ;
1133 [label="X[2] <= 164.5\ngini = 0.131\nsamples = 29\nvalue = [27, 1, 1, 0]"] ;
1132 -> 1133 ;
1134 [label="gini = 0.245\nsamples = 7\nvalue = [6, 1, 0, 0]"] ;
1133 -> 1134 ;
1135 [label="X[3] <= 65.0\ngini = 0.087\nsamples = 22\nvalue = [21, 0, 1, 0]"] ;
1133 -> 1135 ;
1136 [label="gini = 0.0\nsamples = 14\nvalue = [14, 0, 0, 0]"] ;
1135 -> 1136 ;
1137 [label="gini = 0.219\nsamples = 8\nvalue = [7, 0, 1, 0]"] ;
1135 -> 1137 ;
1138 [label="X[3] <= 63.5\ngini = 0.237\nsamples = 53\nvalue = [46, 1, 1, 5]"] ;
1132 -> 1138 ;
1139 [label="X[1] <= 26.5\ngini = 0.273\nsamples = 38\nvalue = [32, 0, 1, 5]"] ;
1138 -> 1139 ;
1140 [label="X[1] <= 23.5\ngini = 0.307\nsamples = 33\nvalue = [27, 0, 1, 5]"] ;
1139 -> 1140 ;
1141 [label="X[3] <= 57.0\ngini = 0.26\nsamples = 26\nvalue = [22, 0, 0, 4]"] ;
1140 -> 1141 ;
1142 [label="gini = 0.0\nsamples = 4\nvalue = [4, 0, 0, 0]"] ;
1141 -> 1142 ;
1143 [label="X[1] <= 22.0\ngini = 0.298\nsamples = 22\nvalue = [18, 0, 0, 4]"] ;
1141 -> 1143 ;
1144 [label="X[2] <= 165.0\ngini = 0.231\nsamples = 15\nvalue = [13, 0, 0, 2]"] ;
1143 -> 1144 ;
1145 [label="gini = 0.245\nsamples = 7\nvalue = [6, 0, 0, 1]"] ;
1144 -> 1145 ;
1146 [label="gini = 0.219\nsamples = 8\nvalue = [7, 0, 0, 1]"] ;
1144 -> 1146 ;
1147 [label="gini = 0.408\nsamples = 7\nvalue = [5, 0, 0, 2]"] ;
1143 -> 1147 ;
1148 [label="gini = 0.449\nsamples = 7\nvalue = [5, 0, 1, 1]"] ;
1140 -> 1148 ;
1149 [label="gini = 0.0\nsamples = 5\nvalue = [5, 0, 0, 0]"] ;
1139 -> 1149 ;
1150 [label="X[3] <= 66.0\ngini = 0.124\nsamples = 15\nvalue = [14, 1, 0, 0]"] ;
1138 -> 1150 ;
1151 [label="gini = 0.0\nsamples = 7\nvalue = [7, 0, 0, 0]"] ;
1150 -> 1151 ;
1152 [label="gini = 0.219\nsamples = 8\nvalue = [7, 1, 0, 0]"] ;
1150 -> 1152 ;
1153 [label="X[1] <= 19.5\ngini = 0.07\nsamples = 56\nvalue = [54, 1, 1, 0]"] ;
1131 -> 1153 ;
1154 [label="gini = 0.375\nsamples = 4\nvalue = [3, 0, 1, 0]"] ;
1153 -> 1154 ;
1155 [label="X[1] <= 24.5\ngini = 0.038\nsamples = 52\nvalue = [51, 1, 0, 0]"] ;
1153 -> 1155 ;
1156 [label="gini = 0.0\nsamples = 34\nvalue = [34, 0, 0, 0]"] ;
1155 -> 1156 ;
1157 [label="X[5] <= 13.5\ngini = 0.105\nsamples = 18\nvalue = [17, 1, 0, 0]"] ;
1155 -> 1157 ;
1158 [label="gini = 0.245\nsamples = 7\nvalue = [6, 1, 0, 0]"] ;
1157 -> 1158 ;
1159 [label="gini = 0.0\nsamples = 11\nvalue = [11, 0, 0, 0]"] ;
1157 -> 1159 ;
1160 [label="X[1] <= 29.5\ngini = 0.384\nsamples = 22\nvalue = [17, 2, 2, 1]"] ;
1120 -> 1160 ;
1161 [label="X[3] <= 64.5\ngini = 0.331\nsamples = 21\nvalue = [17, 1, 2, 1]"] ;
1160 -> 1161 ;
1162 [label="X[1] <= 19.0\ngini = 0.545\nsamples = 11\nvalue = [7, 1, 2, 1]"] ;
1161 -> 1162 ;
1163 [label="gini = 0.0\nsamples = 1\nvalue = [0, 0, 1, 0]"] ;
1162 -> 1163 ;
1164 [label="X[1] <= 21.0\ngini = 0.48\nsamples = 10\nvalue = [7, 1, 1, 1]"] ;
1162 -> 1164 ;
1165 [label="gini = 0.0\nsamples = 3\nvalue = [3, 0, 0, 0]"] ;
1164 -> 1165 ;
1166 [label="X[3] <= 58.5\ngini = 0.612\nsamples = 7\nvalue = [4, 1, 1, 1]"] ;
1164 -> 1166 ;
1167 [label="gini = 0.0\nsamples = 1\nvalue = [0, 0, 0, 1]"] ;
1166 -> 1167 ;
1168 [label="X[1] <= 23.5\ngini = 0.5\nsamples = 6\nvalue = [4, 1, 1, 0]"] ;
1166 -> 1168 ;
1169 [label="X[5] <= 21.5\ngini = 0.667\nsamples = 3\nvalue = [1, 1, 1, 0]"] ;
1168 -> 1169 ;
1170 [label="gini = 0.5\nsamples = 2\nvalue = [1, 0, 1, 0]"] ;
1169 -> 1170 ;
1171 [label="gini = 0.0\nsamples = 1\nvalue = [0, 1, 0, 0]"] ;
1169 -> 1171 ;
1172 [label="gini = 0.0\nsamples = 3\nvalue = [3, 0, 0, 0]"] ;
1168 -> 1172 ;
1173 [label="gini = 0.0\nsamples = 10\nvalue = [10, 0, 0, 0]"] ;
1161 -> 1173 ;
1174 [label="gini = 0.0\nsamples = 1\nvalue = [0, 1, 0, 0]"] ;
1160 -> 1174 ;
1175 [label="X[3] <= 66.0\ngini = 0.5\nsamples = 2\nvalue = [1, 1, 0, 0]"] ;
1103 -> 1175 ;
1176 [label="gini = 0.0\nsamples = 1\nvalue = [1, 0, 0, 0]"] ;
1175 -> 1176 ;
1177 [label="gini = 0.0\nsamples = 1\nvalue = [0, 1, 0, 0]"] ;
1175 -> 1177 ;
1178 [label="X[2] <= 175.5\ngini = 0.377\nsamples = 267\nvalue = [208, 18, 19, 22]"] ;
1102 -> 1178 ;
1179 [label="X[3] <= 72.5\ngini = 0.471\nsamples = 123\nvalue = [87, 12, 10, 14]"] ;
1178 -> 1179 ;
1180 [label="X[5] <= 19.5\ngini = 0.367\nsamples = 98\nvalue = [77, 7, 7, 7]"] ;
1179 -> 1180 ;
1181 [label="X[2] <= 173.5\ngini = 0.261\nsamples = 69\nvalue = [59, 4, 4, 2]"] ;
1180 -> 1181 ;
1182 [label="X[3] <= 67.5\ngini = 0.119\nsamples = 48\nvalue = [45, 1, 2, 0]"] ;
1181 -> 1182 ;
1183 [label="X[1] <= 32.0\ngini = 0.218\nsamples = 25\nvalue = [22, 1, 2, 0]"] ;
1182 -> 1183 ;
1184 [label="X[3] <= 66.0\ngini = 0.304\nsamples = 17\nvalue = [14, 1, 2, 0]"] ;
1183 -> 1184 ;
1185 [label="X[5] <= 15.5\ngini = 0.165\nsamples = 11\nvalue = [10, 0, 1, 0]"] ;
1184 -> 1185 ;
1186 [label="gini = 0.245\nsamples = 7\nvalue = [6, 0, 1, 0]"] ;
1185 -> 1186 ;
1187 [label="gini = 0.0\nsamples = 4\nvalue = [4, 0, 0, 0]"] ;
1185 -> 1187 ;
